{"learner":{"attributes":{"scikit_learn":"{\"_estimator_type\": \"classifier\"}"},"feature_names":["spread_rel","vol_20","vol_50","mid_change_abs","velocity_ema","spread_ma_50","spread_ratio"],"feature_types":["float","float","float","float","float","float","float"],"gradient_booster":{"model":{"cats":{"enc":[],"feature_segments":[],"sorted_idx":[]},"gbtree_model_param":{"num_parallel_tree":"1","num_trees":"900"},"iteration_indptr":[0,3,6,9,12,15,18,21,24,27,30,33,36,39,42,45,48,51,54,57,60,63,66,69,72,75,78,81,84,87,90,93,96,99,102,105,108,111,114,117,120,123,126,129,132,135,138,141,144,147,150,153,156,159,162,165,168,171,174,177,180,183,186,189,192,195,198,201,204,207,210,213,216,219,222,225,228,231,234,237,240,243,246,249,252,255,258,261,264,267,270,273,276,279,282,285,288,291,294,297,300,303,306,309,312,315,318,321,324,327,330,333,336,339,342,345,348,351,354,357,360,363,366,369,372,375,378,381,384,387,390,393,396,399,402,405,408,411,414,417,420,423,426,429,432,435,438,441,444,447,450,453,456,459,462,465,468,471,474,477,480,483,486,489,492,495,498,501,504,507,510,513,516,519,522,525,528,531,534,537,540,543,546,549,552,555,558,561,564,567,570,573,576,579,582,585,588,591,594,597,600,603,606,609,612,615,618,621,624,627,630,633,636,639,642,645,648,651,654,657,660,663,666,669,672,675,678,681,684,687,690,693,696,699,702,705,708,711,714,717,720,723,726,729,732,735,738,741,744,747,750,753,756,759,762,765,768,771,774,777,780,783,786,789,792,795,798,801,804,807,810,813,816,819,822,825,828,831,834,837,840,843,846,849,852,855,858,861,864,867,870,873,876,879,882,885,888,891,894,897,900],"tree_info":[0,1,2,0,1,2,0,1,2,0,1,2,0,1,2,0,1,2,0,1,2,0,1,2,0,1,2,0,1,2,0,1,2,0,1,2,0,1,2,0,1,2,0,1,2,0,1,2,0,1,2,0,1,2,0,1,2,0,1,2,0,1,2,0,1,2,0,1,2,0,1,2,0,1,2,0,1,2,0,1,2,0,1,2,0,1,2,0,1,2,0,1,2,0,1,2,0,1,2,0,1,2,0,1,2,0,1,2,0,1,2,0,1,2,0,1,2,0,1,2,0,1,2,0,1,2,0,1,2,0,1,2,0,1,2,0,1,2,0,1,2,0,1,2,0,1,2,0,1,2,0,1,2,0,1,2,0,1,2,0,1,2,0,1,2,0,1,2,0,1,2,0,1,2,0,1,2,0,1,2,0,1,2,0,1,2,0,1,2,0,1,2,0,1,2,0,1,2,0,1,2,0,1,2,0,1,2,0,1,2,0,1,2,0,1,2,0,1,2,0,1,2,0,1,2,0,1,2,0,1,2,0,1,2,0,1,2,0,1,2,0,1,2,0,1,2,0,1,2,0,1,2,0,1,2,0,1,2,0,1,2,0,1,2,0,1,2,0,1,2,0,1,2,0,1,2,0,1,2,0,1,2,0,1,2,0,1,2,0,1,2,0,1,2,0,1,2,0,1,2,0,1,2,0,1,2,0,1,2,0,1,2,0,1,2,0,1,2,0,1,2,0,1,2,0,1,2,0,1,2,0,1,2,0,1,2,0,1,2,0,1,2,0,1,2,0,1,2,0,1,2,0,1,2,0,1,2,0,1,2,0,1,2,0,1,2,0,1,2,0,1,2,0,1,2,0,1,2,0,1,2,0,1,2,0,1,2,0,1,2,0,1,2,0,1,2,0,1,2,0,1,2,0,1,2,0,1,2,0,1,2,0,1,2,0,1,2,0,1,2,0,1,2,0,1,2,0,1,2,0,1,2,0,1,2,0,1,2,0,1,2,0,1,2,0,1,2,0,1,2,0,1,2,0,1,2,0,1,2,0,1,2,0,1,2,0,1,2,0,1,2,0,1,2,0,1,2,0,1,2,0,1,2,0,1,2,0,1,2,0,1,2,0,1,2,0,1,2,0,1,2,0,1,2,0,1,2,0,1,2,0,1,2,0,1,2,0,1,2,0,1,2,0,1,2,0,1,2,0,1,2,0,1,2,0,1,2,0,1,2,0,1,2,0,1,2,0,1,2,0,1,2,0,1,2,0,1,2,0,1,2,0,1,2,0,1,2,0,1,2,0,1,2,0,1,2,0,1,2,0,1,2,0,1,2,0,1,2,0,1,2,0,1,2,0,1,2,0,1,2,0,1,2,0,1,2,0,1,2,0,1,2,0,1,2,0,1,2,0,1,2,0,1,2,0,1,2,0,1,2,0,1,2,0,1,2,0,1,2,0,1,2,0,1,2,0,1,2,0,1,2,0,1,2,0,1,2,0,1,2,0,1,2,0,1,2,0,1,2,0,1,2,0,1,2,0,1,2,0,1,2,0,1,2,0,1,2,0,1,2,0,1,2,0,1,2,0,1,2,0,1,2,0,1,2,0,1,2,0,1,2,0,1,2,0,1,2,0,1,2,0,1,2,0,1,2,0,1,2,0,1,2,0,1,2,0,1,2,0,1,2,0,1,2,0,1,2,0,1,2,0,1,2,0,1,2,0,1,2,0,1,2,0,1,2,0,1,2,0,1,2,0,1,2,0,1,2,0,1,2,0,1,2,0,1,2,0,1,2,0,1,2,0,1,2,0,1,2,0,1,2,0,1,2,0,1,2,0,1,2,0,1,2,0,1,2,0,1,2,0,1,2,0,1,2,0,1,2,0,1,2,0,1,2,0,1,2,0,1,2,0,1,2,0,1,2,0,1,2,0,1,2,0,1,2,0,1,2,0,1,2,0,1,2,0,1,2,0,1,2,0,1,2,0,1,2,0,1,2,0,1,2,0,1,2,0,1,2,0,1,2,0,1,2,0,1,2,0,1,2],"trees":[{"base_weights":[1.6667123E-1,-7.8828895E-1,9.390457E-1,6.3657545E-2,-7.915704E-1,1.3454597E0,-3.958564E-2,-3.9598443E-2,4.411218E-2,1.3504047E0,6.0440727E-2,1.3538785E0,8.8314337E-1,-3.6683884E-2,4.5627826E-1,4.4666987E-2,6.779437E-2,5.304361E-2,-2.95506E-2,6.3657545E-2,-3.621967E-2],"categories":[],"categories_nodes":[],"categories_segments":[],"categories_sizes":[],"default_left":[0,0,0,0,0,0,0,0,0,0,0,0,0,0,0,0,0,0,0,0,0],"id":0,"left_children":[1,3,5,-1,7,9,-1,-1,-1,11,13,15,17,-1,19,-1,-1,-1,-1,-1,-1],"loss_changes":[1.658461E4,6.902002E1,8.744912E3,0E0,7.394043E0,6.388867E1,0E0,0E0,0E0,1.5082031E1,1.27950535E1,7.9960938E0,2.0770058E1,0E0,2.7030048E1,0E0,0E0,0E0,0E0,0E0,0E0],"parents":[2147483647,0,0,1,1,2,2,4,4,5,5,9,9,10,10,11,11,12,12,14,14],"right_children":[2,4,6,-1,8,10,-1,-1,-1,12,14,16,18,-1,20,-1,-1,-1,-1,-1,-1],"split_conditions":[2.7407072E-3,9.979542E-5,1.0242035E-3,6.3657545E-2,1.01528E-4,1.10194206E-1,-3.958564E-2,-3.9598443E-2,4.411218E-2,3.9985983E-4,1.4591127E-4,5.3917933E-2,5.4602087E-1,-3.6683884E-2,3.2058507E-4,4.4666987E-2,6.779437E-2,5.304361E-2,-2.95506E-2,6.3657545E-2,-3.621967E-2],"split_indices":[4,0,5,0,0,4,0,0,0,5,5,2,2,0,5,0,0,0,0,0,0],"split_type":[0,0,0,0,0,0,0,0,0,0,0,0,0,0,0,0,0,0,0,0,0],"sum_hessian":[2.2482953E4,1.0053201E4,1.2429752E4,1.5362615E1,1.0037839E4,1.0066236E4,2.363515E3,1.0035977E4,1.862135E0,1.0027598E4,3.86393E1,9.951715E3,7.5882E1,1.2569411E1,2.6069891E1,4.5156776E1,9.906559E3,6.7967926E1,7.914074E0,1.5362615E1,1.0707276E1],"tree_param":{"num_deleted":"0","num_feature":"7","num_nodes":"21","size_leaf_vector":"1"}},{"base_weights":[1.6764297E-1,1.3521777E0,-7.888519E-1,-3.724942E-2,1.3555669E0,-4.3241825E-2,-3.9599568E-2,6.7793325E-2,-2.3078281E-2,7.8649825E-1,-3.823396E-2,-1.7454341E-1,6.377115E-2,1.619918E-2,-3.197193E-2],"categories":[],"categories_nodes":[],"categories_segments":[],"categories_sizes":[],"default_left":[0,0,0,0,0,0,0,0,0,0,0,0,0,0,0],"id":1,"left_children":[1,3,5,-1,7,9,-1,-1,-1,11,-1,13,-1,-1,-1],"loss_changes":[2.5437615E4,7.230078E1,2.904248E1,0E0,6.0742188E0,3.2411396E1,0E0,0E0,0E0,1.206724E1,0E0,2.3810253E0,0E0,0E0,0E0],"parents":[2147483647,0,0,1,1,2,2,4,4,5,5,9,9,11,11],"right_children":[2,4,6,-1,8,10,-1,-1,-1,12,-1,14,-1,-1,-1],"split_conditions":[2.7407072E-3,9.979542E-5,5.3917933E-2,-3.724942E-2,1.01528E-4,1.5389667E-2,-3.9599568E-2,6.7793325E-2,-2.3078281E-2,7.117847E-3,-3.823396E-2,1.4591127E-4,6.377115E-2,1.619918E-2,-3.197193E-2],"split_indices":[4,0,2,0,0,1,0,0,0,4,0,5,0,0,0],"split_type":[0,0,0,0,0,0,0,0,0,0,0,0,0,0,0],"sum_hessian":[2.2449588E4,1.00290625E4,1.2420526E4,1.5828257E1,1.0013234E4,5.2140137E1,1.2368386E4,1.0011838E4,1.3966109E0,2.4207922E1,2.7932217E1,8.379665E0,1.5828257E1,4.1898327E0,4.1898327E0],"tree_param":{"num_deleted":"0","num_feature":"7","num_nodes":"15","size_leaf_vector":"1"}},{"base_weights":[-4.02623E-1,-6.7401683E-1,9.517372E-2,-6.7790574E-1,2.1195005E-1,-3.389829E-2,-1.730963E-1,-2.0646751E-1,8.620321E-2,-1.8217986E-2,4.9120863E-3,-4.5842645E-1,9.192167E-1,-3.2726515E-2,-8.1685735E-3,-2.5627587E-2,7.7001326E-2],"categories":[],"categories_nodes":[],"categories_segments":[],"categories_sizes":[],"default_left":[0,0,0,0,0,0,0,0,0,0,0,0,0,0,0,0,0],"id":2,"left_children":[1,3,-1,5,7,-1,9,11,-1,-1,-1,13,15,-1,-1,-1,-1],"loss_changes":[1.169125E4,5.7725098E1,0E0,3.881836E-1,4.70483E1,0E0,2.082687E-1,1.7069447E1,0E0,0E0,0E0,2.7068233E0,1.0627168E1,0E0,0E0,0E0,0E0],"parents":[2147483647,0,0,1,1,3,3,4,4,6,6,7,7,11,11,12,12],"right_children":[2,4,-1,6,8,-1,10,12,-1,-1,-1,14,16,-1,-1,-1,-1],"split_conditions":[1.0242035E-3,3.9985983E-4,9.517372E-2,5.9193593E-1,5.4602087E-1,-3.389829E-2,7.815176E-2,8.924587E-4,8.620321E-2,-1.8217986E-2,4.9120863E-3,3.2118404E-1,4.3390274E-2,-3.2726515E-2,-8.1685735E-3,-2.5627587E-2,7.7001326E-2],"split_indices":[5,5,0,1,2,0,4,0,0,0,0,2,4,0,0,0,0],"split_type":[0,0,0,0,0,0,0,0,0,0,0,0,0,0,0,0,0],"sum_hessian":[1.867723E4,1.6711268E4,1.9659631E3,1.6638469E4,7.279911E1,1.6636145E4,2.3233757E0,5.7697166E1,1.5101942E1,1.1616879E0,1.1616879E0,4.7629204E1,1.0067962E1,2.7880508E1,1.9748693E1,3.0978343E0,6.970127E0],"tree_param":{"num_deleted":"0","num_feature":"7","num_nodes":"17","size_leaf_vector":"1"}},{"base_weights":[1.5862666E-1,-7.697585E-1,8.826029E-1,6.007234E-2,-3.86561E-2,1.2605435E0,-3.875948E-2,1.2649807E0,6.615535E-2,1.2685442E0,7.780051E-1,4.5629302E-1,-3.5981894E-2,4.4591565E-2,6.353053E-2,4.831147E-2,-9.430154E-5,-3.5267558E-2,5.9888482E-2],"categories":[],"categories_nodes":[],"categories_segments":[],"categories_sizes":[],"default_left":[0,0,0,0,0,0,0,0,0,0,0,0,0,0,0,0,0,0,0],"id":3,"left_children":[1,3,5,-1,-1,7,-1,9,11,13,15,17,-1,-1,-1,-1,-1,-1,-1],"loss_changes":[1.5142589E4,6.637695E1,7.9318496E3,0E0,0E0,5.455078E1,0E0,1.6835938E1,1.2348981E1,6.8007812E0,1.1333351E1,2.3940197E1,0E0,0E0,0E0,0E0,0E0,0E0,0E0],"parents":[2147483647,0,0,1,1,2,2,5,5,7,7,8,8,9,9,10,10,11,11],"right_children":[2,4,6,-1,-1,8,-1,10,12,14,16,18,-1,-1,-1,-1,-1,-1,-1],"split_conditions":[2.7407072E-3,8.773185E-1,1.0242035E-3,6.007234E-2,-3.86561E-2,1.10194206E-1,-3.875948E-2,3.9985983E-4,2.9647304E-4,1.4591127E-4,8.924587E-4,1.4591127E-4,-3.5981894E-2,4.4591565E-2,6.353053E-2,4.831147E-2,-9.430154E-5,-3.5267558E-2,5.9888482E-2],"split_indices":[4,6,5,0,0,4,0,5,5,5,0,5,0,0,0,0,0,0,0],"split_type":[0,0,0,0,0,0,0,0,0,0,0,0,0,0,0,0,0,0,0],"sum_hessian":[2.2527287E4,9.870223E3,1.2657064E4,1.6206476E1,9.854017E3,1.0307435E4,2.3496309E3,1.0269224E4,3.821033E1,1.019303E4,7.619319E1,2.5813524E1,1.2396809E1,5.796213E1,1.0135068E4,6.1186985E1,1.5006209E1,1.0076213E1,1.5737311E1],"tree_param":{"num_deleted":"0","num_feature":"7","num_nodes":"19","size_leaf_vector":"1"}},{"base_weights":[1.6246831E-1,1.2608671E0,-3.8683746E-2,-3.7856262E-2,1.2684083E0,6.353008E-2,-3.5649225E-2],"categories":[],"categories_nodes":[],"categories_segments":[],"categories_sizes":[],"default_left":[0,0,0,0,0,0,0],"id":4,"left_children":[1,3,-1,-1,5,-1,-1],"loss_changes":[2.3082434E4,1.5814453E2,0E0,0E0,4.5626953E1,0E0,0E0],"parents":[2147483647,0,0,1,1,4,4],"right_children":[2,4,-1,-1,6,-1,-1],"split_conditions":[5.3917933E-2,9.4358486E-1,-3.8683746E-2,-3.7856262E-2,1.01528E-4,6.353008E-2,-3.5649225E-2],"split_indices":[2,6,0,0,0,0,0],"split_type":[0,0,0,0,0,0,0],"sum_hessian":[2.244613E4,1.0327862E4,1.211827E4,3.8080856E1,1.0289781E4,1.0278762E4,1.1019369E1],"tree_param":{"num_deleted":"0","num_feature":"7","num_nodes":"7","size_leaf_vector":"1"}},{"base_weights":[-3.943036E-1,-6.4172083E-1,1.6170926E0,-6.5270054E-1,1.4734142E0,3.0444056E-1,1.6687756E0,8.4755406E-2,-6.592633E-1,8.3993375E-2,1.6216205E-1,1.217602E0,-1.6505486E-1,1.005666E0,8.580476E-2,-6.610096E-1,6.3712525E-1,-2.9568914E-2,6.976562E-2,-5.912846E-2,8.205039E-2,-6.058199E-1,1.422972E0,1.498699E0,2.7179557E-1,-3.327186E-2,-1.9158747E-2,-2.9891929E-2,7.051151E-2,5.3798612E-2,-2.7816936E-2,-3.2602135E-2,-1.1612405E-3,1.773902E-2,7.777428E-2,5.5575527E-2,8.466049E-2,6.566348E-2,-2.0669002E-2],"categories":[],"categories_nodes":[],"categories_segments":[],"categories_sizes":[],"default_left":[0,0,0,0,0,0,0,0,0,0,0,0,0,0,0,0,0,0,0,0,0,0,0,0,0,0,0,0,0,0,0,0,0,0,0,0,0,0,0],"id":5,"left_children":[1,3,5,7,9,11,13,-1,15,-1,17,19,21,23,-1,25,27,-1,-1,29,-1,31,33,35,37,-1,-1,-1,-1,-1,-1,-1,-1,-1,-1,-1,-1,-1,-1],"loss_changes":[9.163557E3,3.8172168E2,1.3632617E2,2.5244678E2,2.2731812E1,3.348231E1,5.9157715E1,0E0,3.724756E1,0E0,1.2594946E1,1.4410896E1,3.7364033E1,4.7228638E1,0E0,1.9729492E1,2.2222292E1,0E0,0E0,4.8651233E0,0E0,1.1029911E0,1.0941372E0,4.032135E0,3.916792E1,0E0,0E0,0E0,0E0,0E0,0E0,0E0,0E0,0E0,0E0,0E0,0E0,0E0,0E0],"parents":[2147483647,0,0,1,1,2,2,3,3,4,4,5,5,6,6,8,8,10,10,11,11,12,12,13,13,15,15,16,16,19,19,21,21,22,22,23,23,24,24],"right_children":[2,4,6,8,10,12,14,-1,16,-1,18,20,22,24,-1,26,28,-1,-1,30,-1,32,34,36,38,-1,-1,-1,-1,-1,-1,-1,-1,-1,-1,-1,-1,-1,-1],"split_conditions":[8.131442E-2,1.643723E-3,2.3135754E-1,2.0016313E-1,4.441223E0,6.0794204E-1,9.8221034E-2,8.4755406E-2,5.021729E-1,8.3993375E-2,2.700135E-3,1.9839301E-4,1.003009E-3,2.2737368E-13,8.580476E-2,7.924715E-4,3.8834952E-4,-2.9568914E-2,6.976562E-2,1.0551196E-1,8.205039E-2,8.924587E-4,1.0955629E-3,5.931198E-4,5.376163E-1,-3.327186E-2,-1.9158747E-2,-2.9891929E-2,7.051151E-2,5.3798612E-2,-2.7816936E-2,-3.2602135E-2,-1.1612405E-3,1.773902E-2,7.777428E-2,5.5575527E-2,8.466049E-2,6.566348E-2,-2.0669002E-2],"split_indices":[4,0,1,6,6,6,4,0,1,0,0,0,0,3,0,0,0,0,0,6,0,0,0,0,6,0,0,0,0,0,0,0,0,0,0,0,0,0,0],"split_type":[0,0,0,0,0,0,0,0,0,0,0,0,0,0,0,0,0,0,0,0,0,0,0,0,0,0,0,0,0,0,0,0,0,0,0,0,0,0,0],"sum_hessian":[1.841042E4,1.6394455E4,2.0159635E3,1.63104795E4,8.397653E1,7.662861E1,1.9393348E3,4.4747967E1,1.6265731E4,7.231033E1,1.1666195E1,2.5478971E1,5.114964E1,1.3065572E2,1.8086792E3,1.6244339E4,2.1392305E1,7.56431E0,4.101885E0,6.5596046E0,1.8919367E1,4.0521263E1,1.0628377E1,7.752814E1,5.3127583E1,1.5988155E4,2.5618402E2,8.323301E0,1.3069003E1,1.6435231E0,4.9160814E0,3.7432205E1,3.089057E0,1.5788198E0,9.049558E0,2.816935E1,4.9358788E1,2.0718521E1,3.240906E1],"tree_param":{"num_deleted":"0","num_feature":"7","num_nodes":"39","size_leaf_vector":"1"}},{"base_weights":[1.5685639E-1,-7.526663E-1,8.4136003E-1,5.6326974E-2,-7.5561976E-1,1.1890646E0,-3.8008206E-2,-3.7795942E-2,3.6833916E-2,1.1929375E0,1.3023387E-1,1.1958745E0,7.781287E-1,4.8674512E-1,-3.5041418E-2,4.4936217E-2,5.987497E-2,4.6660952E-2,1.3538307E-3,-3.445985E-2,5.7809312E-2],"categories":[],"categories_nodes":[],"categories_segments":[],"categories_sizes":[],"default_left":[0,0,0,0,0,0,0,0,0,0,0,0,0,0,0,0,0,0,0,0,0],"id":6,"left_children":[1,3,5,-1,7,9,-1,-1,-1,11,13,15,17,19,-1,-1,-1,-1,-1,-1,-1],"loss_changes":[1.4014282E4,5.4501953E1,7.1531074E3,0E0,4.8637695E0,4.3120117E1,0E0,0E0,0E0,1.1878906E1,1.2068652E1,3.9648438E0,8.918705E0,2.306716E1,0E0,0E0,0E0,0E0,0E0,0E0,0E0],"parents":[2147483647,0,0,1,1,2,2,4,4,5,5,9,9,10,10,11,11,12,12,13,13],"right_children":[2,4,6,-1,8,10,-1,-1,-1,12,14,16,18,20,-1,-1,-1,-1,-1,-1,-1],"split_conditions":[2.7407072E-3,9.979542E-5,1.0242035E-3,5.6326974E-2,1.01528E-4,1.10194206E-1,-3.8008206E-2,-3.7795942E-2,3.6833916E-2,3.9985983E-4,3.2058507E-4,1.4591127E-4,8.924587E-4,1.4591127E-4,-3.5041418E-2,4.4936217E-2,5.987497E-2,4.6660952E-2,1.3538307E-3,-3.445985E-2,5.7809312E-2],"split_indices":[4,0,5,0,0,4,0,0,0,5,5,5,0,5,0,0,0,0,0,0,0],"split_type":[0,0,0,0,0,0,0,0,0,0,0,0,0,0,0,0,0,0,0,0,0],"sum_hessian":[2.2508299E4,9.665427E3,1.2842873E4,1.4569868E1,9.650856E3,1.0552165E4,2.2907078E3,9.649417E3,1.4401963E0,1.0513583E4,3.858218E1,1.0437798E4,7.578482E1,2.7289686E1,1.1292492E1,5.978361E1,1.0378015E4,6.261287E1,1.31719475E1,9.889048E0,1.7400639E1],"tree_param":{"num_deleted":"0","num_feature":"7","num_nodes":"21","size_leaf_vector":"1"}},{"base_weights":[1.5364115E-1,1.1887208E0,-3.7839703E-2,-3.6955748E-2,1.194998E0,5.986805E-2,-3.5365593E-2],"categories":[],"categories_nodes":[],"categories_segments":[],"categories_sizes":[],"default_left":[0,0,0,0,0,0,0],"id":7,"left_children":[1,3,-1,-1,5,-1,-1],"loss_changes":[2.1207732E4,1.283291E2,0E0,0E0,4.8033203E1,0E0,0E0],"parents":[2147483647,0,0,1,1,4,4],"right_children":[2,4,-1,-1,6,-1,-1],"split_conditions":[5.3917933E-2,9.4358486E-1,-3.7839703E-2,-3.6955748E-2,1.01528E-4,5.986805E-2,-3.5365593E-2],"split_indices":[2,6,0,0,0,0,0],"split_type":[0,0,0,0,0,0,0],"sum_hessian":[2.2502652E4,1.0530338E4,1.1972314E4,3.3797436E1,1.049654E4,1.0483889E4,1.2651656E1],"tree_param":{"num_deleted":"0","num_feature":"7","num_nodes":"7","size_leaf_vector":"1"}},{"base_weights":[-3.8244492E-1,-6.5761095E-1,7.934587E-2,-6.589537E-1,7.281899E-2,-3.306092E-2,-6.653413E-2,-3.159471E-1,1.2319783E0,-2.2153534E-2,3.4979645E-2,1.8542988E-2,6.721315E-2],"categories":[],"categories_nodes":[],"categories_segments":[],"categories_sizes":[],"default_left":[0,0,0,0,0,0,0,0,0,0,0,0,0],"id":8,"left_children":[1,3,-1,5,-1,-1,7,9,11,-1,-1,-1,-1],"loss_changes":[9.832511E3,4.6148926E1,0E0,2.1300293E1,0E0,0E0,2.0370872E1,7.09439E0,4.8241043E-1,0E0,0E0,0E0,0E0],"parents":[2147483647,0,0,1,1,3,3,6,6,7,7,8,8],"right_children":[2,4,-1,6,-1,-1,8,10,12,-1,-1,-1,-1],"split_conditions":[1.0242035E-3,6.310966E-1,7.934587E-2,3.9985983E-4,7.281899E-2,-3.306092E-2,5.16981E-1,1.2800945E-3,5.4602087E-1,-2.2153534E-2,3.4979645E-2,1.8542988E-2,6.721315E-2],"split_indices":[5,1,0,5,0,0,2,0,2,0,0,0,0],"split_type":[0,0,0,0,0,0,0,0,0,0,0,0,0],"sum_hessian":[1.8141533E4,1.5918071E4,2.2234614E3,1.5908654E4,9.416915E0,1.5847957E4,6.0697258E1,5.155204E1,9.145218E0,4.631777E1,5.2342715E0,1.5512707E0,7.5939474E0],"tree_param":{"num_deleted":"0","num_feature":"7","num_nodes":"13","size_leaf_vector":"1"}},{"base_weights":[1.5205827E-1,-7.3660254E-1,7.9958045E-1,5.3483646E-2,-7.395494E-1,1.1247739E0,-3.727414E-2,-3.6997538E-2,3.986854E-2,1.1294951E0,2.0240435E-1,1.1319413E0,7.5912106E-1,5.451713E-1,-6.5709305E-1,4.04517E-2,5.6690622E-2,4.717691E-2,-7.111732E-3,-3.4389634E-2,5.5635195E-2,-1.252638E-2,-3.5314586E-2],"categories":[],"categories_nodes":[],"categories_segments":[],"categories_sizes":[],"default_left":[0,0,0,0,0,0,0,0,0,0,0,0,0,0,0,0,0,0,0,0,0,0,0],"id":9,"left_children":[1,3,5,-1,7,9,-1,-1,-1,11,13,15,17,19,21,-1,-1,-1,-1,-1,-1,-1,-1],"loss_changes":[1.287273E4,5.09834E1,6.502992E3,0E0,6.397949E0,4.63291E1,0E0,0E0,0E0,8.77832E0,1.6757387E1,5.4648438E0,1.22397995E1,2.899382E1,1.4956379E-1,0E0,0E0,0E0,0E0,0E0,0E0,0E0,0E0],"parents":[2147483647,0,0,1,1,2,2,4,4,5,5,9,9,10,10,11,11,12,12,13,13,14,14],"right_children":[2,4,6,-1,8,10,-1,-1,-1,12,14,16,18,20,22,-1,-1,-1,-1,-1,-1,-1,-1],"split_conditions":[2.7407072E-3,9.979542E-5,1.0242035E-3,5.3483646E-2,1.01528E-4,9.8221034E-2,-3.727414E-2,-3.6997538E-2,3.986854E-2,3.9985983E-4,3.6344636E-4,1.4591127E-4,8.924587E-4,1.4591127E-4,2.9727988E-4,4.04517E-2,5.6690622E-2,4.717691E-2,-7.111732E-3,-3.4389634E-2,5.5635195E-2,-1.252638E-2,-3.5314586E-2],"split_indices":[4,0,5,0,0,4,0,0,0,5,5,5,0,5,0,0,0,0,0,0,0,0,0],"split_type":[0,0,0,0,0,0,0,0,0,0,0,0,0,0,0,0,0,0,0,0,0,0,0],"sum_hessian":[2.2368697E4,9.428654E3,1.2940042E4,1.4767778E1,9.413887E3,1.06903E4,2.2497427E3,9.411947E3,1.939624E0,1.0635635E4,5.4664467E1,1.0563809E4,7.182643E1,3.9341007E1,1.5323457E1,6.3356014E1,1.0500453E4,5.958796E1,1.2238476E1,1.2333844E1,2.7007164E1,2.3117642E0,1.3011693E1],"tree_param":{"num_deleted":"0","num_feature":"7","num_nodes":"23","size_leaf_vector":"1"}},{"base_weights":[1.5165377E-1,1.1302781E0,-7.372436E-1,-3.5201948E-2,5.6673545E-2,-8.547002E-2,-3.7054118E-2,-4.6036717E-1,5.2189182E-2,-2.2406429E-1,-3.5846245E-2,-3.562671E-2,5.521601E-2],"categories":[],"categories_nodes":[],"categories_segments":[],"categories_sizes":[],"default_left":[0,0,0,0,0,0,0,0,0,0,0,0,0],"id":10,"left_children":[1,3,5,-1,-1,7,-1,9,-1,11,-1,-1,-1],"loss_changes":[1.9386482E4,6.29209E1,2.9155762E1,0E0,0E0,2.9907953E1,0E0,3.045189E0,0E0,1.959184E1,0E0,0E0,0E0],"parents":[2147483647,0,0,1,1,2,2,5,5,7,7,9,9],"right_children":[2,4,6,-1,-1,8,-1,10,-1,12,-1,-1,-1],"split_conditions":[2.7407072E-3,8.773185E-1,1.4591127E-4,-3.5201948E-2,5.6673545E-2,4.8646998E-2,-3.7054118E-2,1.01528E-4,5.2189182E-2,9.867285E-5,-3.5846245E-2,-3.562671E-2,5.521601E-2],"split_indices":[4,6,5,0,0,4,0,0,0,0,0,0,0],"split_type":[0,0,0,0,0,0,0,0,0,0,0,0,0],"sum_hessian":[2.2284004E4,1.0606544E4,1.167746E4,1.8047981E1,1.0588496E4,6.851022E1,1.160895E4,5.187931E1,1.6630913E1,2.7980854E1,2.3898457E1,2.0797033E1,7.1838202E0],"tree_param":{"num_deleted":"0","num_feature":"7","num_nodes":"13","size_leaf_vector":"1"}},{"base_weights":[-3.7980592E-1,-6.367603E-1,1.3955954E0,-6.4507324E-1,7.8624624E-1,5.5124307E-1,1.4468256E0,7.045498E-2,-6.471646E-1,-5.399024E-1,1.2022368E0,-9.0282224E-2,1.4136043E0,-9.3170024E-2,1.4507062E0,-6.496224E-1,1.0423636E0,-3.1107444E-2,1.0336716E-2,1.2885368E0,-2.5388718E-2,-5.029195E-1,9.632878E-1,7.235576E-1,7.337531E-2,-2.6078051E-2,4.2793613E-2,1.2693328E0,7.315141E-2,-3.2555092E-2,-1.2464838E-2,6.965934E-2,-1.0752373E-2,2.9315336E-2,6.977937E-2,5.8318257E-2,-3.2031875E-2,7.019378E-2,1.1470817E-2,-4.8486763E-3,5.6082617E-2,2.705881E-2,7.1636304E-2],"categories":[],"categories_nodes":[],"categories_segments":[],"categories_sizes":[],"default_left":[0,0,0,0,0,0,0,0,0,0,0,0,0,0,0,0,0,0,0,0,0,0,0,0,0,0,0,0,0,0,0,0,0,0,0,0,0,0,0,0,0,0,0],"id":11,"left_children":[1,3,5,7,9,11,13,-1,15,17,19,21,23,25,27,29,31,-1,-1,33,-1,35,37,39,-1,-1,-1,41,-1,-1,-1,-1,-1,-1,-1,-1,-1,-1,-1,-1,-1,-1,-1],"loss_changes":[8.1449023E3,1.8499316E2,9.684766E1,6.7523926E1,5.086609E1,7.245882E1,1.2851074E1,0E0,6.500244E1,1.505755E0,1.0925751E1,3.3486423E1,1.0148697E0,3.002719E0,2.8857422E0,8.999512E0,1.0395231E1,0E0,0E0,4.183922E0,0E0,1.343824E1,6.696537E0,2.074508E0,0E0,0E0,0E0,1.6186462E1,0E0,0E0,0E0,0E0,0E0,0E0,0E0,0E0,0E0,0E0,0E0,0E0,0E0,0E0,0E0],"parents":[2147483647,0,0,1,1,2,2,3,3,4,4,5,5,6,6,8,8,9,9,10,10,11,11,12,12,13,13,14,14,15,15,16,16,19,19,21,21,22,22,23,23,27,27],"right_children":[2,4,6,8,10,12,14,-1,16,18,20,22,24,26,28,30,32,-1,-1,34,-1,36,38,40,-1,-1,-1,42,-1,-1,-1,-1,-1,-1,-1,-1,-1,-1,-1,-1,-1,-1,-1],"split_conditions":[6.094837E-1,9.8221034E-2,6.050252E-2,2.0016313E-1,2.1032557E-1,7.637989E-1,9.7575255E-5,7.045498E-2,1.8007202E-3,4.289058E-1,4.037945E-1,5.931198E-4,8.0090827E-1,9.8221034E-2,7.3225677E-1,1.18965E-3,4.441223E0,-3.1107444E-2,1.0336716E-2,1.10194206E-1,-2.5388718E-2,2.454112E-1,1.9107379E0,3.8834952E-4,7.337531E-2,-2.6078051E-2,4.2793613E-2,8.8836916E-2,7.315141E-2,-3.2555092E-2,-1.2464838E-2,6.965934E-2,-1.0752373E-2,2.9315336E-2,6.977937E-2,5.8318257E-2,-3.2031875E-2,7.019378E-2,1.1470817E-2,-4.8486763E-3,5.6082617E-2,2.705881E-2,7.1636304E-2],"split_indices":[2,4,4,6,1,2,0,0,0,2,4,0,2,4,2,0,6,0,0,4,0,6,6,0,0,0,0,4,0,0,0,0,0,0,0,0,0,0,0,0,0,0,0],"split_type":[0,0,0,0,0,0,0,0,0,0,0,0,0,0,0,0,0,0,0,0,0,0,0,0,0,0,0,0,0,0,0,0,0,0,0,0,0,0,0,0,0,0,0],"sum_hessian":[1.7850963E4,1.5594595E4,2.256369E3,1.5504566E4,9.002804E1,1.2974426E2,2.1266248E3,1.5084913E1,1.5489481E4,2.14259E1,6.860214E1,7.491157E1,5.4832695E1,5.2876863E0,2.121337E3,1.5467596E4,2.1885891E1,1.9450087E1,1.975812E0,6.5540924E1,3.0612135E0,5.420463E1,2.0706932E1,5.017887E0,4.9814808E1,3.9535267E0,1.3341596E0,1.4156532E2,1.9797716E3,1.54100205E4,5.757546E1,1.7027237E1,4.858653E0,9.526429E0,5.6014496E1,3.5618696E0,5.0642765E1,1.2368434E1,8.338498E0,1.8863176E0,3.1315694E0,2.673478E1,1.1483054E2],"tree_param":{"num_deleted":"0","num_feature":"7","num_nodes":"43","size_leaf_vector":"1"}},{"base_weights":[1.4852944E-1,-7.2153807E-1,7.661126E-1,5.1624995E-2,-3.6253106E-2,1.0701363E0,-3.659759E-2,1.0737284E0,6.70112E-2,-3.372896E-2,1.0744915E0,-3.3491787E-2,3.8225794E-1,5.3835947E-2,3.644411E-2,5.200712E-2,-3.36807E-2],"categories":[],"categories_nodes":[],"categories_segments":[],"categories_sizes":[],"default_left":[0,0,0,0,0,0,0,0,0,0,0,0,0,0,0,0,0],"id":12,"left_children":[1,3,5,-1,-1,7,-1,9,11,-1,13,-1,15,-1,-1,-1,-1],"loss_changes":[1.1918941E4,5.7666992E1,5.909258E3,0E0,0E0,3.8789062E1,0E0,1.5060547E1,9.442657E0,0E0,7.484375E0,0E0,2.0383177E1,0E0,0E0,0E0,0E0],"parents":[2147483647,0,0,1,1,2,2,5,5,7,7,8,8,10,10,12,12],"right_children":[2,4,6,-1,-1,8,-1,10,12,-1,14,-1,16,-1,-1,-1,-1],"split_conditions":[2.7407072E-3,8.773185E-1,1.0242035E-3,5.1624995E-2,-3.6253106E-2,1.2714304E-1,-3.659759E-2,2.0016313E-1,1.4591127E-4,-3.372896E-2,3.9985983E-4,-3.3491787E-2,3.2058507E-4,5.3835947E-2,3.644411E-2,5.200712E-2,-3.36807E-2],"split_indices":[4,6,5,0,0,4,0,6,5,0,5,0,5,0,0,0,0],"split_type":[0,0,0,0,0,0,0,0,0,0,0,0,0,0,0,0,0],"sum_hessian":[2.2179387E4,9.207479E3,1.2971908E4,1.787592E1,9.189604E3,1.0783702E4,2.1882058E3,1.0745154E4,3.854825E1,4.30212E0,1.0740852E4,1.12134695E1,2.7334778E1,1.0669969E4,7.0883E1,1.685056E1,1.0484219E1],"tree_param":{"num_deleted":"0","num_feature":"7","num_nodes":"17","size_leaf_vector":"1"}},{"base_weights":[1.4654551E-1,1.0754418E0,-7.2292024E-1,-3.396571E-2,1.0777458E0,-3.5265617E-2,-3.6327787E-2,5.3902593E-2,-2.441662E-2,6.9586E-1,-3.5489667E-2,-2.9398298E-2,9.1068894E-1,5.4626197E-2,-2.655895E-2],"categories":[],"categories_nodes":[],"categories_segments":[],"categories_sizes":[],"default_left":[0,0,0,0,0,0,0,0,0,0,0,0,0,0,0],"id":13,"left_children":[1,3,5,-1,7,9,-1,-1,-1,11,-1,-1,13,-1,-1],"loss_changes":[1.8048262E4,4.4411133E1,2.8830566E1,0E0,5.6972656E0,3.094901E1,0E0,0E0,0E0,8.8478565E0,0E0,0E0,7.4523487E0,0E0,0E0],"parents":[2147483647,0,0,1,1,2,2,4,4,5,5,9,9,12,12],"right_children":[2,4,6,-1,8,10,-1,-1,-1,12,-1,-1,14,-1,-1],"split_conditions":[2.7407072E-3,9.979542E-5,5.3917933E-2,-3.396571E-2,1.01528E-4,1.5389667E-2,-3.6327787E-2,5.3902593E-2,-2.441662E-2,9.867285E-5,-3.5489667E-2,-2.9398298E-2,1.01528E-4,5.4626197E-2,-2.655895E-2],"split_indices":[4,0,2,0,0,1,0,0,0,0,0,0,0,0,0],"split_type":[0,0,0,0,0,0,0,0,0,0,0,0,0,0,0],"sum_hessian":[2.2344854E4,1.0803096E4,1.1541757E4,1.3780191E1,1.0789315E4,6.0754433E1,1.1481002E4,1.078752E4,1.7963738E0,2.9138916E1,3.1615515E1,3.9280188E0,2.5210897E1,2.2602737E1,2.6081607E0],"tree_param":{"num_deleted":"0","num_feature":"7","num_nodes":"15","size_leaf_vector":"1"}},{"base_weights":[-3.7275988E-1,-6.4181703E-1,6.835749E-2,-6.457073E-1,1.8472254E-1,-3.228845E-2,-2.1344656E-1,-3.7616116E-1,1.0695106E0,4.6790447E-3,-1.9745197E-2,-5.9674025E-1,-1.0389303E-2,5.37178E-1,6.5371186E-2,-3.1376965E-2,-6.9289953E-3,-8.77864E-3,4.2532545E-2,5.7880938E-2,-1.0045637E-2],"categories":[],"categories_nodes":[],"categories_segments":[],"categories_sizes":[],"default_left":[0,0,0,0,0,0,0,0,0,0,0,0,0,0,0,0,0,0,0,0,0],"id":14,"left_children":[1,3,-1,5,7,-1,9,11,13,-1,-1,15,17,19,-1,-1,-1,-1,-1,-1,-1],"loss_changes":[8.171106E3,4.872461E1,0E0,2.631836E-1,3.593054E1,0E0,2.3967324E-1,3.5886211E0,2.8483925E0,0E0,0E0,3.0498695E-1,2.6780632E0,4.975537E0,0E0,0E0,0E0,0E0,0E0,0E0,0E0],"parents":[2147483647,0,0,1,1,3,3,4,4,6,6,7,7,8,8,11,11,12,12,13,13],"right_children":[2,4,-1,6,8,-1,10,12,14,-1,-1,16,18,20,-1,-1,-1,-1,-1,-1,-1],"split_conditions":[1.0242035E-3,3.9985983E-4,6.835749E-2,8.0090827E-1,4.289058E-1,-3.228845E-2,9.6390184E-5,3.051079E-1,5.4602087E-1,4.6790447E-3,-1.9745197E-2,1.2800945E-3,1.0955629E-3,1.8867613E-1,6.5371186E-2,-3.1376965E-2,-6.9289953E-3,-8.77864E-3,4.2532545E-2,5.7880938E-2,-1.0045637E-2],"split_indices":[5,5,0,2,2,0,0,2,2,0,0,0,0,1,0,0,0,0,0,0,0],"split_type":[0,0,0,0,0,0,0,0,0,0,0,0,0,0,0,0,0,0,0,0,0],"sum_hessian":[1.7451715E4,1.5114985E4,2.3367285E3,1.5044394E4,7.059151E1,1.5041756E4,2.6386478E0,4.3555634E1,2.7035875E1,1.1600741E0,1.4785738E0,2.6776554E1,1.6779081E1,9.357121E0,1.7678755E1,2.474352E1,2.0330327E0,1.474623E1,2.0328507E0,4.7749186E0,4.5822034E0],"tree_param":{"num_deleted":"0","num_feature":"7","num_nodes":"21","size_leaf_vector":"1"}},{"base_weights":[1.3983451E-1,-3.5573218E-2,7.278889E-1,9.8463106E-1,-6.7324257E-1,9.9838245E-1,-6.1228263E-1,-2.7668895E-2,-6.950395E-1,-3.563449E-2,1.0081273E0,-3.562455E-2,1.8790048E-1,-3.0494756E-1,5.531439E-1,-3.3249375E-1,-7.0889026E-1,5.0561875E-2,-1.0217629E-2,4.445853E-2,-3.110981E-2,2.5288947E-4,-3.4358826E-2,4.8944157E-2,-3.04434E-2,-3.2674875E-2,1.2314817E-2,-2.9204024E-2,-3.5668183E-2],"categories":[],"categories_nodes":[],"categories_segments":[],"categories_sizes":[],"default_left":[0,0,0,0,0,0,0,0,0,0,0,0,0,0,0,0,0,0,0,0,0,0,0,0,0,0,0,0,0],"id":15,"left_children":[1,-1,3,5,7,9,11,13,15,-1,17,-1,19,21,23,25,27,-1,-1,-1,-1,-1,-1,-1,-1,-1,-1,-1,-1],"loss_changes":[1.1022342E4,0E0,4.6851406E3,2.4230078E2,2.8366516E1,1.826748E2,7.7182503E0,1.0947012E1,9.562927E0,0E0,4.1125E1,0E0,6.9830527E0,5.4476333E0,1.1470647E1,1.3851848E1,6.322632E-1,0E0,0E0,0E0,0E0,0E0,0E0,0E0,0E0,0E0,0E0,0E0,0E0],"parents":[2147483647,0,0,2,2,3,3,4,4,5,5,6,6,7,7,8,8,10,10,12,12,13,13,14,14,15,15,16,16],"right_children":[2,-1,4,6,8,10,12,14,16,-1,18,-1,20,22,24,26,28,-1,-1,-1,-1,-1,-1,-1,-1,-1,-1,-1,-1],"split_conditions":[3.0289055E-8,-3.5573218E-2,8.8836916E-2,1.8007202E-3,2.4170448E-1,2.0016313E-1,4.441223E0,1.0040662E0,9.8221034E-2,-3.563449E-2,5.2812976E-1,-3.562455E-2,2.4140012E-3,2.0277806E-4,1.0955629E-3,2.2737368E-13,3.361058E-1,5.0561875E-2,-1.0217629E-2,4.445853E-2,-3.110981E-2,2.5288947E-4,-3.4358826E-2,4.8944157E-2,-3.04434E-2,-3.2674875E-2,1.2314817E-2,-2.9204024E-2,-3.5668183E-2],"split_indices":[4,0,4,0,1,6,6,6,4,0,1,0,0,0,0,3,1,0,0,0,0,0,0,0,0,0,0,0,0],"split_type":[0,0,0,0,0,0,0,0,0,0,0,0,0,0,0,0,0,0,0,0,0,0,0,0,0,0,0,0,0],"sum_hessian":[2.201579E4,8.994565E3,1.3021223E4,1.1004978E4,2.0162458E3,1.0911392E4,9.3585846E1,6.5926636E1,1.9503192E3,6.1382286E1,1.0850009E4,8.326768E1,1.03181715E1,4.4944973E1,2.098166E1,7.268865E1,1.8776305E3,1.0822415E4,2.75943E1,5.478248E0,4.8399234E0,2.5361994E1,1.9582981E1,1.5470982E1,5.5106797E0,4.667376E1,2.6014889E1,6.952097E1,1.8081095E3],"tree_param":{"num_deleted":"0","num_feature":"7","num_nodes":"29","size_leaf_vector":"1"}},{"base_weights":[1.4148599E-1,1.0268236E0,-7.0964324E-1,-3.325394E-2,5.1447034E-2,-1.3237134E-1,-3.564983E-2,6.19541E-1,-3.509321E-2,-3.0908246E-2,9.6747845E-1,5.3391125E-2,-2.0413334E-2],"categories":[],"categories_nodes":[],"categories_segments":[],"categories_sizes":[],"default_left":[0,0,0,0,0,0,0,0,0,0,0,0,0],"id":16,"left_children":[1,3,5,-1,-1,7,-1,9,-1,-1,11,-1,-1],"loss_changes":[1.6550281E4,3.9243164E1,2.1583008E1,0E0,0E0,2.8654308E1,0E0,1.3057867E1,0E0,0E0,3.6074734E0,0E0,0E0],"parents":[2147483647,0,0,1,1,2,2,5,5,7,7,10,10],"right_children":[2,4,6,-1,-1,8,-1,10,-1,-1,12,-1,-1],"split_conditions":[2.7407072E-3,8.773185E-1,1.4591127E-4,-3.325394E-2,5.1447034E-2,1.5389667E-2,-3.564983E-2,8.547374E-1,-3.509321E-2,-3.0908246E-2,1.1368684E-13,5.3391125E-2,-2.0413334E-2],"split_indices":[4,6,5,0,0,1,0,6,0,0,3,0,0],"split_type":[0,0,0,0,0,0,0,0,0,0,0,0,0],"sum_hessian":[2.1961502E4,1.0764328E4,1.1197173E4,1.3060711E1,1.0751268E4,6.490122E1,1.1132271E4,2.7932943E1,3.696828E1,5.9589E0,2.1974043E1,2.0688862E1,1.2851803E0],"tree_param":{"num_deleted":"0","num_feature":"7","num_nodes":"13","size_leaf_vector":"1"}},{"base_weights":[-3.6328435E-1,-6.225347E-1,1.2235616E0,-6.304936E-1,6.906735E-1,5.476737E-1,1.2628019E0,-6.32935E-1,9.8504514E-1,-5.628413E-1,1.0195572E0,-1.81695E-1,1.0834311E0,-5.0325114E-2,1.2656099E0,6.185601E-2,-6.348837E-1,6.117755E-2,1.07723504E-1,4.1744947E-3,-3.0448357E-2,6.6890645E-1,1.1761403E0,5.9873827E-2,-6.038527E-1,1.1764299E0,-1.8936343E-2,-2.4763802E-2,3.9638575E-2,1.0697671E0,6.374792E-2,-3.1813946E-2,-1.2603312E-2,-2.4275988E-2,4.6932865E-2,5.7494003E-2,-2.8353795E-2,3.4310054E-2,6.2732E-2,-3.1200169E-2,3.5717066E-3,3.3831544E-2,6.1706286E-2,4.3987874E-2,-2.5843E-2,2.100399E-2,6.319811E-2],"categories":[],"categories_nodes":[],"categories_segments":[],"categories_sizes":[],"default_left":[0,0,0,0,0,0,0,0,0,0,0,0,0,0,0,0,0,0,0,0,0,0,0,0,0,0,0,0,0,0,0,0,0,0,0,0,0,0,0,0,0,0,0,0,0,0,0],"id":17,"left_children":[1,3,5,7,9,11,13,15,17,19,21,23,25,27,29,-1,31,-1,33,-1,-1,35,37,-1,39,41,43,-1,-1,45,-1,-1,-1,-1,-1,-1,-1,-1,-1,-1,-1,-1,-1,-1,-1,-1,-1],"loss_changes":[7.0465684E3,1.5430908E2,6.3106445E1,5.834326E1,3.733374E1,5.2464973E1,8.443848E0,5.4036133E1,4.5705814E0,6.225457E-1,3.1110535E0,3.420157E1,7.94265E0,2.5727167E0,2.78833E0,0E0,7.6362305E0,0E0,3.364163E0,0E0,0E0,1.5058194E1,9.7579956E-1,0E0,6.52689E-1,1.2199173E0,3.5847368E0,0E0,0E0,1.328923E1,0E0,0E0,0E0,0E0,0E0,0E0,0E0,0E0,0E0,0E0,0E0,0E0,0E0,0E0,0E0,0E0,0E0],"parents":[2147483647,0,0,1,1,2,2,3,3,4,4,5,5,6,6,7,7,8,8,9,9,10,10,11,11,12,12,13,13,14,14,16,16,18,18,21,21,22,22,24,24,25,25,26,26,29,29],"right_children":[2,4,6,8,10,12,14,16,18,20,22,24,26,28,30,-1,32,-1,34,-1,-1,36,38,-1,40,42,44,-1,-1,46,-1,-1,-1,-1,-1,-1,-1,-1,-1,-1,-1,-1,-1,-1,-1,-1,-1],"split_conditions":[6.094837E-1,9.8221034E-2,6.050252E-2,1.8007202E-3,3.288446E-1,3.9635354E-4,9.7575255E-5,2.0016313E-1,4.441223E0,3.5209653E-1,5.806077E-4,2.454112E-1,2.2737368E-13,9.8221034E-2,8.131442E-2,6.185601E-2,1.18965E-3,6.117755E-2,2.700135E-3,4.1744947E-3,-3.0448357E-2,5.050159E-1,1.1577733E-1,5.9873827E-2,8.0090827E-1,6.589796E-1,5.153421E-1,-2.4763802E-2,3.9638575E-2,7.637989E-1,6.374792E-2,-3.1813946E-2,-1.2603312E-2,-2.4275988E-2,4.6932865E-2,5.7494003E-2,-2.8353795E-2,3.4310054E-2,6.2732E-2,-3.1200169E-2,3.5717066E-3,3.3831544E-2,6.1706286E-2,4.3987874E-2,-2.5843E-2,2.100399E-2,6.319811E-2],"split_indices":[2,4,4,0,2,0,0,6,6,6,0,6,3,4,4,0,0,0,0,0,0,6,4,0,2,2,6,0,0,2,0,0,0,0,0,0,0,0,0,0,0,0,0,0,0,0,0],"split_type":[0,0,0,0,0,0,0,0,0,0,0,0,0,0,0,0,0,0,0,0,0,0,0,0,0,0,0,0,0,0,0,0,0,0,0,0,0,0,0,0,0,0,0,0,0,0,0],"sum_hessian":[1.7125814E4,1.472133E4,2.404484E3,1.4633164E4,8.816663E1,1.3275853E2,2.2717253E3,1.461169E4,2.1472961E1,1.8176594E1,6.999004E1,5.6500637E1,7.625789E1,4.811419E0,2.2669138E3,1.455043E1,1.4597141E4,1.6572868E1,4.900092E0,1.1568177E0,1.7019777E1,2.3233356E1,4.6756683E1,1.2811018E1,4.368962E1,7.026312E1,5.994768E0,3.4193704E0,1.3920486E0,1.0853964E2,2.1583743E3,1.4543474E4,5.366633E1,3.1014867E0,1.7986054E0,1.6775106E1,6.458249E0,7.8022294E0,3.8954453E1,4.2497433E1,1.1921849E0,8.588816E0,6.167431E1,1.8638628E0,4.1309056E0,2.5705168E1,8.283447E1],"tree_param":{"num_deleted":"0","num_feature":"7","num_nodes":"47","size_leaf_vector":"1"}},{"base_weights":[1.3706037E-1,-6.953164E-1,7.023759E-1,4.7090985E-2,-3.4929797E-2,9.800669E-1,-3.5389658E-2,9.830685E-1,1.2946525E-1,9.856444E-1,6.3060105E-1,-3.2347053E-2,4.185977E-1,3.6533322E-2,4.9331117E-2,3.9015498E-2,-3.0026866E-2,4.9209226E-2,-3.24801E-2],"categories":[],"categories_nodes":[],"categories_segments":[],"categories_sizes":[],"default_left":[0,0,0,0,0,0,0,0,0,0,0,0,0,0,0,0,0,0,0],"id":18,"left_children":[1,3,5,-1,-1,7,-1,9,11,13,15,-1,17,-1,-1,-1,-1,-1,-1],"loss_changes":[1.0226618E4,4.7854492E1,5.0689487E3,0E0,0E0,2.7482422E1,0E0,9.162109E0,9.065621E0,1.9462891E0,1.5389431E1,0E0,1.825309E1,0E0,0E0,0E0,0E0,0E0,0E0],"parents":[2147483647,0,0,1,1,2,2,5,5,7,7,8,8,9,9,10,10,12,12],"right_children":[2,4,6,-1,-1,8,-1,10,12,14,16,-1,18,-1,-1,-1,-1,-1,-1],"split_conditions":[2.7407072E-3,9.979542E-5,1.0242035E-3,4.7090985E-2,-3.4929797E-2,1.10194206E-1,-3.5389658E-2,3.9985983E-4,5.3917933E-2,5.3917933E-2,5.4602087E-1,-3.2347053E-2,3.2058507E-4,3.6533322E-2,4.9331117E-2,3.9015498E-2,-3.0026866E-2,4.9209226E-2,-3.24801E-2],"split_indices":[4,0,5,0,0,4,0,5,2,2,2,0,5,0,0,0,0,0,0],"split_type":[0,0,0,0,0,0,0,0,0,0,0,0,0,0,0,0,0,0,0],"sum_hessian":[2.173104E4,8.789319E3,1.294172E4,1.6999866E1,8.772319E3,1.08127705E4,2.1289497E3,1.0774593E4,3.817786E1,1.0694639E4,7.995401E1,1.0023707E1,2.8154152E1,4.3717777E1,1.0650921E4,7.161203E1,8.341978E0,1.8459126E1,9.695025E0],"tree_param":{"num_deleted":"0","num_feature":"7","num_nodes":"19","size_leaf_vector":"1"}},{"base_weights":[1.4016365E-1,9.8371786E-1,-6.9723827E-1,9.849532E-1,-3.14901E-2,-4.522706E-2,-3.5023205E-2,9.85146E-1,-1.9421836E-2,6.9527113E-1,-3.4105718E-2,4.926693E-2,-1.9405955E-2,9.314867E-1,-2.7820555E-2,2.1107914E-2,5.0578643E-2],"categories":[],"categories_nodes":[],"categories_segments":[],"categories_sizes":[],"default_left":[0,0,0,0,0,0,0,0,0,0,0,0,0,0,0,0,0],"id":19,"left_children":[1,3,5,7,-1,9,-1,11,-1,13,-1,-1,-1,15,-1,-1,-1],"loss_changes":[1.5332574E4,2.2173828E1,2.287793E1,3.243164E0,0E0,2.6268587E1,0E0,3.2382812E0,0E0,8.1420555E0,0E0,0E0,0E0,4.730091E-1,0E0,0E0,0E0],"parents":[2147483647,0,0,1,1,2,2,3,3,5,5,7,7,9,9,13,13],"right_children":[2,4,6,8,-1,10,-1,12,-1,14,-1,-1,-1,16,-1,-1,-1],"split_conditions":[2.7407072E-3,1.4591127E-4,5.3917933E-2,1.5389667E-2,-3.14901E-2,1.5389667E-2,-3.5023205E-2,5.3917933E-2,-1.9421836E-2,1.4591127E-4,-3.4105718E-2,4.926693E-2,-1.9405955E-2,6.2071052E-3,-2.7820555E-2,2.1107914E-2,5.0578643E-2],"split_indices":[4,5,2,1,0,1,0,2,0,5,0,0,0,4,0,0,0],"split_type":[0,0,0,0,0,0,0,0,0,0,0,0,0,0,0,0,0],"sum_hessian":[2.1703443E4,1.0811918E4,1.0891526E4,1.0804035E4,7.882269E0,5.3693752E1,1.0837833E4,1.0802802E4,1.2332885E0,2.478499E1,2.8908762E1,1.0801569E4,1.232398E0,2.1065376E1,3.7196138E0,3.7143447E0,1.735103E1],"tree_param":{"num_deleted":"0","num_feature":"7","num_nodes":"17","size_leaf_vector":"1"}},{"base_weights":[-3.5731152E-1,-6.277964E-1,6.047036E-2,-6.316122E-1,1.6717957E-1,-3.1583887E-2,-8.455906E-5,-5.259076E-1,6.922351E-1,-3.0845348E-2,1.819347E-1,2.9496145E-1,5.8921207E-2,4.7996417E-2,-2.293354E-2,-4.366335E-3,5.758328E-2],"categories":[],"categories_nodes":[],"categories_segments":[],"categories_sizes":[],"default_left":[0,0,0,0,0,0,0,0,0,0,0,0,0,0,0,0,0],"id":20,"left_children":[1,3,-1,5,7,-1,-1,9,11,-1,13,15,-1,-1,-1,-1,-1],"loss_changes":[7.08089E3,4.332617E1,0E0,5.839844E-1,2.5420332E1,0E0,0E0,2.0604782E0,7.3025265E0,0E0,2.5423377E0,7.676003E0,0E0,0E0,0E0,0E0,0E0],"parents":[2147483647,0,0,1,1,3,3,4,4,7,7,8,8,10,10,11,11],"right_children":[2,4,-1,6,8,-1,-1,10,12,-1,14,16,-1,-1,-1,-1,-1],"split_conditions":[1.0242035E-3,3.9985983E-4,6.047036E-2,6E-1,3.2118404E-1,-3.1583887E-2,-8.455906E-5,1.2800945E-3,5.4602087E-1,-3.0845348E-2,1.6004453E0,7.924715E-4,5.8921207E-2,4.7996417E-2,-2.293354E-2,-4.366335E-3,5.758328E-2],"split_indices":[5,5,0,3,2,0,0,0,2,0,6,0,0,0,0,0,0],"split_type":[0,0,0,0,0,0,0,0,0,0,0,0,0,0,0,0,0],"sum_hessian":[1.6706338E4,1.4247235E4,2.4591033E3,1.4179382E4,6.7853096E1,1.4177905E4,1.4769932E0,2.9245995E1,3.8607105E1,2.6028296E1,3.217699E0,2.2130535E1,1.647657E1,1.2279387E0,1.9897603E0,1.5923181E1,6.207354E0],"tree_param":{"num_deleted":"0","num_feature":"7","num_nodes":"17","size_leaf_vector":"1"}},{"base_weights":[1.3183622E-1,-6.833592E-1,6.7739654E-1,4.5886558E-2,-3.433763E-2,9.11209E-1,-6.477636E-1,9.231659E-1,-6.025785E-1,-2.0357905E-2,-6.697673E-1,-3.453006E-2,9.3136144E-1,-3.4420732E-2,1.3921374E-1,-2.6511908E-1,5.9189993E-1,-3.263066E-1,-6.8308985E-1,4.6704527E-2,-7.860254E-3,4.0230047E-2,-2.9338548E-2,8.1623514E-4,-3.3244856E-2,4.4794705E-2,-2.7347883E-2,-3.1368162E-2,8.058199E-3,-2.9640902E-2,-3.4672733E-2],"categories":[],"categories_nodes":[],"categories_segments":[],"categories_sizes":[],"default_left":[0,0,0,0,0,0,0,0,0,0,0,0,0,0,0,0,0,0,0,0,0,0,0,0,0,0,0,0,0,0,0],"id":21,"left_children":[1,3,5,-1,-1,7,9,11,13,15,17,-1,19,-1,21,23,25,27,29,-1,-1,-1,-1,-1,-1,-1,-1,-1,-1,-1,-1],"loss_changes":[9.466712E3,4.6996826E1,3.9515996E3,0E0,0E0,1.9675879E2,2.6396912E1,1.4288672E2,5.5432606E0,1.0025249E1,8.234253E0,0E0,3.1938477E1,0E0,5.160152E0,5.381795E0,7.108198E0,1.051037E1,1.2526855E0,0E0,0E0,0E0,0E0,0E0,0E0,0E0,0E0,0E0,0E0,0E0,0E0],"parents":[2147483647,0,0,1,1,2,2,5,5,6,6,7,7,8,8,9,9,10,10,12,12,14,14,15,15,16,16,17,17,18,18],"right_children":[2,4,6,-1,-1,8,10,12,14,16,18,-1,20,-1,22,24,26,28,30,-1,-1,-1,-1,-1,-1,-1,-1,-1,-1,-1,-1],"split_conditions":[2.7407072E-3,8.773185E-1,8.8836916E-2,4.5886558E-2,-3.433763E-2,1.8007202E-3,2.3135754E-1,2.0016313E-1,4.441223E0,1.0040662E0,9.8221034E-2,-3.453006E-2,5.2812976E-1,-3.4420732E-2,2.700135E-3,2.9045844E-4,1.0955629E-3,2.2737368E-13,4.4396538E-1,4.6704527E-2,-7.860254E-3,4.0230047E-2,-2.9338548E-2,8.1623514E-4,-3.3244856E-2,4.4794705E-2,-2.7347883E-2,-3.1368162E-2,8.058199E-3,-2.9640902E-2,-3.4672733E-2],"split_indices":[4,6,4,0,0,0,1,6,6,6,4,0,1,0,0,0,0,3,1,0,0,0,0,0,0,0,0,0,0,0,0],"split_type":[0,0,0,0,0,0,0,0,0,0,0,0,0,0,0,0,0,0,0,0,0,0,0,0,0,0,0,0,0,0,0],"sum_hessian":[2.1283988E4,8.533171E3,1.2750816E4,1.7477201E1,8.515694E3,1.0838733E4,1.9120836E3,1.075418E4,8.455371E1,6.485163E1,1.847232E3,5.391817E1,1.0700262E4,7.5848854E1,8.704853E0,4.673532E1,1.811631E1,6.992891E1,1.7773031E3,1.0673644E4,2.661734E1,4.485482E0,4.219371E0,2.798972E1,1.8745602E1,1.446778E1,3.6485307E0,4.3052914E1,2.6876E1,1.8904202E2,1.5882611E3],"tree_param":{"num_deleted":"0","num_feature":"7","num_nodes":"31","size_leaf_vector":"1"}},{"base_weights":[1.3421147E-1,9.417102E-1,-3.4436E-2,-3.3678196E-2,9.4603956E-1,4.7373515E-2,-3.153108E-2],"categories":[],"categories_nodes":[],"categories_segments":[],"categories_sizes":[],"default_left":[0,0,0,0,0,0,0],"id":22,"left_children":[1,3,-1,-1,5,-1,-1],"loss_changes":[1.4185196E4,7.59834E1,0E0,0E0,2.4839844E1,0E0,0E0],"parents":[2147483647,0,0,1,1,4,4],"right_children":[2,4,-1,-1,6,-1,-1],"split_conditions":[5.3917933E-2,9.4358486E-1,-3.4436E-2,-3.3678196E-2,1.0040662E0,4.7373515E-2,-3.153108E-2],"split_indices":[2,6,0,0,6,0,0],"split_type":[0,0,0,0,0,0,0],"sum_hessian":[2.1344682E4,1.0773286E4,1.0571395E4,2.8385014E1,1.0744901E4,1.0735558E4,9.343071E0],"tree_param":{"num_deleted":"0","num_feature":"7","num_nodes":"7","size_leaf_vector":"1"}},{"base_weights":[-3.4717238E-1,-6.082175E-1,1.0919468E0,-6.1726725E-1,5.900649E-1,4.1194174E-1,1.1287837E0,-6.194921E-1,8.6870915E-1,-4.8286903E-1,8.681133E-1,-1.0926359E-1,1.0854232E0,-1.6967042E-1,1.1301631E0,5.5341538E-2,-6.2127656E-1,5.4433327E-2,1.891217E-1,8.783684E-3,-5.562798E-1,5.988769E-1,1.0882431E0,-4.645377E-1,7.6037073E-1,1.1164227E0,7.764572E-3,5.640199E-3,-1.7749008E-2,9.1556925E-1,5.6858636E-2,-3.1146351E-2,-8.994042E-3,-2.4021242E-2,4.7154218E-2,-2.9843582E-2,-4.826278E-3,5.1398665E-2,-2.91974E-2,5.5894043E-2,1.1296974E-2,4.8327293E-2,-2.9731411E-2,5.5300694E-2,1.3443612E-2,1.9124264E-2,5.637697E-2,1.0412949E-2,5.5633277E-2],"categories":[],"categories_nodes":[],"categories_segments":[],"categories_sizes":[],"default_left":[0,0,0,0,0,0,0,0,0,0,0,0,0,0,0,0,0,0,0,0,0,0,0,0,0,0,0,0,0,0,0,0,0,0,0,0,0,0,0,0,0,0,0,0,0,0,0,0,0],"id":23,"left_children":[1,3,5,7,9,11,13,15,17,19,21,23,25,27,29,-1,31,-1,33,-1,35,37,39,41,43,45,-1,-1,-1,47,-1,-1,-1,-1,-1,-1,-1,-1,-1,-1,-1,-1,-1,-1,-1,-1,-1,-1,-1],"loss_changes":[6.1720044E3,1.5116016E2,6.2724854E1,4.616797E1,3.1667217E1,4.6175026E1,4.4768066E0,4.3143555E1,2.9406824E0,1.1709714E0,4.2996635E0,2.3486097E1,1.4797363E0,2.184484E-1,2.553711E0,0E0,9.91748E0,0E0,3.662391E0,0E0,3.1961775E-1,2.080265E1,8.90831E-1,1.0586608E1,3.4563131E0,2.0103455E-2,0E0,0E0,0E0,1.1022949E1,0E0,0E0,0E0,0E0,0E0,0E0,0E0,0E0,0E0,0E0,0E0,0E0,0E0,0E0,0E0,0E0,0E0,0E0,0E0],"parents":[2147483647,0,0,1,1,2,2,3,3,4,4,5,5,6,6,7,7,8,8,9,9,10,10,11,11,12,12,13,13,14,14,16,16,18,18,20,20,21,21,22,22,23,23,24,24,25,25,29,29],"right_children":[2,4,6,8,10,12,14,16,18,20,22,24,26,28,30,-1,32,-1,34,-1,36,38,40,42,44,46,-1,-1,-1,48,-1,-1,-1,-1,-1,-1,-1,-1,-1,-1,-1,-1,-1,-1,-1,-1,-1,-1,-1],"split_conditions":[6.094837E-1,9.310485E-2,6.050252E-2,1.8007202E-3,3.288446E-1,7.637989E-1,9.725261E-5,2.0016313E-1,4.441223E0,5.2632225E-1,9.6721156E-4,5.931198E-4,1E-1,9.6390184E-5,6.786812E-1,5.5341538E-2,1.18965E-3,5.4433327E-2,2.700135E-3,8.783684E-3,8.924587E-4,7.356879E-1,4.441223E0,2.454112E-1,1.9107379E0,9.939864E-5,7.764572E-3,5.640199E-3,-1.7749008E-2,8.8836916E-2,5.6858636E-2,-3.1146351E-2,-8.994042E-3,-2.4021242E-2,4.7154218E-2,-2.9843582E-2,-4.826278E-3,5.1398665E-2,-2.91974E-2,5.5894043E-2,1.1296974E-2,4.8327293E-2,-2.9731411E-2,5.5300694E-2,1.3443612E-2,1.9124264E-2,5.637697E-2,1.0412949E-2,5.5633277E-2],"split_indices":[2,4,4,0,2,2,0,6,6,6,0,0,3,0,2,0,0,0,0,0,0,6,6,6,6,0,0,0,0,4,0,0,0,0,0,0,0,0,0,0,0,0,0,0,0,0,0,0,0],"split_type":[0,0,0,0,0,0,0,0,0,0,0,0,0,0,0,0,0,0,0,0,0,0,0,0,0,0,0,0,0,0,0,0,0,0,0,0,0,0,0,0,0,0,0,0,0,0,0,0,0],"sum_hessian":[1.6426336E4,1.3904707E4,2.521629E3,1.3800963E4,1.0374403E2,1.302066E2,2.3914224E3,1.3780913E4,2.0050074E1,2.1200163E1,8.254388E1,7.387372E1,5.6332886E1,2.4082408E0,2.3890142E3,1.3590688E1,1.3767322E4,1.4692652E1,5.357422E0,1.9865432E0,1.921362E1,3.880402E1,4.3739857E1,5.2778E1,2.1095718E1,5.4322155E1,2.010732E0,1.1090077E0,1.2992332E0,7.973177E1,2.3092825E3,1.3715626E4,5.1695972E1,3.0297198E0,2.3277023E0,1.7380823E1,1.8327975E0,2.8570385E1,1.0233634E1,4.1999912E1,1.739943E0,3.8621333E0,4.8915867E1,1.165155E1,9.444168E0,1.3388085E0,5.2983345E1,1.782406E1,6.1907715E1],"tree_param":{"num_deleted":"0","num_feature":"7","num_nodes":"49","size_leaf_vector":"1"}},{"base_weights":[1.3405047E-1,-6.663578E-1,6.5598464E-1,4.5597635E-2,-6.7338985E-1,8.890216E-1,-6.567266E-1,-3.3805918E-2,4.405523E-2,9.001987E-1,-2.4734202E-1,4.1760072E-2,-6.6451156E-1,-3.3772495E-2,9.0516156E-1,-6.6406107E-1,6.051054E-1,-4.5580715E-1,-3.4202766E-2,4.535852E-2,-3.199746E-2,-3.4390938E-2,-1.1525127E-2,4.5367505E-2,-3.100293E-2,5.380052E-3,-2.9233402E-2],"categories":[],"categories_nodes":[],"categories_segments":[],"categories_sizes":[],"default_left":[0,0,0,0,0,0,0,0,0,0,0,0,0,0,0,0,0,0,0,0,0,0,0,0,0,0,0],"id":24,"left_children":[1,3,5,-1,7,9,11,-1,-1,13,15,-1,17,-1,19,21,23,25,-1,-1,-1,-1,-1,-1,-1,-1,-1],"loss_changes":[8.805396E3,9.294995E1,3.9034053E3,0E0,3.572876E1,1.378418E2,2.2901306E1,0E0,0E0,8.4515625E1,3.8169624E1,0E0,7.4973145E0,0E0,3.3780273E1,5.819092E-1,1.3683082E1,1.2182262E1,0E0,0E0,0E0,0E0,0E0,0E0,0E0,0E0,0E0],"parents":[2147483647,0,0,1,1,2,2,4,4,5,5,6,6,9,9,10,10,12,12,14,14,15,15,16,16,17,17],"right_children":[2,4,6,-1,8,10,12,-1,-1,14,16,-1,18,-1,20,22,24,26,-1,-1,-1,-1,-1,-1,-1,-1,-1],"split_conditions":[5.3917933E-2,9.4358486E-1,6.786812E-1,4.5597635E-2,1.01528E-4,1.3818971E-3,9.696029E-5,-3.3805918E-2,4.405523E-2,2.0016313E-1,3.8100543E0,4.1760072E-2,8.0090827E-1,-3.3772495E-2,6.134458E-1,3.2608268E0,2.4140012E-3,2.6202652E-1,-3.4202766E-2,4.535852E-2,-3.199746E-2,-3.4390938E-2,-1.1525127E-2,4.5367505E-2,-3.100293E-2,5.380052E-3,-2.9233402E-2],"split_indices":[2,6,2,0,0,0,0,0,0,6,6,0,2,0,1,6,0,1,0,0,0,0,0,0,0,0,0],"split_type":[0,0,0,0,0,0,0,0,0,0,0,0,0,0,0,0,0,0,0,0,0,0,0,0,0,0,0],"sum_hessian":[2.1075574E4,8.31851E3,1.2757065E4,3.6327225E1,8.282183E3,1.0834085E4,1.9229805E3,8.268234E3,1.3947598E1,1.0728766E4,1.0531896E2,9.430404E0,1.91355E3,3.3262295E1,1.0695503E4,7.088689E1,3.443207E1,1.659303E2,1.7476198E3,1.0682028E4,1.3475083E1,6.6648315E1,4.238575E0,2.7826702E1,6.6053677E0,3.0917435E1,1.3501286E2],"tree_param":{"num_deleted":"0","num_feature":"7","num_nodes":"27","size_leaf_vector":"1"}},{"base_weights":[1.3124031E-1,9.1024023E-1,-6.739386E-1,-3.2256376E-2,4.5627993E-2,-4.108514E-2,-3.3889413E-2,6.6315997E-1,-3.3230394E-2,-2.9162562E-2,4.8365157E-2],"categories":[],"categories_nodes":[],"categories_segments":[],"categories_sizes":[],"default_left":[0,0,0,0,0,0,0,0,0,0,0],"id":25,"left_children":[1,3,5,-1,-1,7,-1,9,-1,-1,-1],"loss_changes":[1.3135529E4,3.8990234E1,2.5061523E1,0E0,0E0,2.8249317E1,0E0,1.2027779E1,0E0,0E0,0E0],"parents":[2147483647,0,0,1,1,2,2,5,5,7,7],"right_children":[2,4,6,-1,-1,8,-1,10,-1,-1,-1],"split_conditions":[2.7407072E-3,8.773185E-1,1.4591127E-4,-3.2256376E-2,4.5627993E-2,1.5389667E-2,-3.3889413E-2,9.714869E-5,-3.3230394E-2,-2.9162562E-2,4.8365157E-2],"split_indices":[4,6,5,0,0,1,0,0,0,0,0],"split_type":[0,0,0,0,0,0,0,0,0,0,0],"sum_hessian":[2.0940004E4,1.0642955E4,1.0297049E4,1.5436012E1,1.062752E4,6.2328995E1,1.023472E4,2.9239983E1,3.3089012E1,5.5554533E0,2.368453E1],"tree_param":{"num_deleted":"0","num_feature":"7","num_nodes":"11","size_leaf_vector":"1"}},{"base_weights":[-3.4473702E-1,-6.147626E-1,5.4551255E-2,-3.0944148E-2,1.6297114E-1,-1.6654052E-1,4.9130578E-2,-3.0284315E-2,1.3602196E-1,-4.9024853E-3,5.3872403E-2],"categories":[],"categories_nodes":[],"categories_segments":[],"categories_sizes":[],"default_left":[0,0,0,0,0,0,0,0,0,0,0],"id":26,"left_children":[1,3,-1,-1,5,7,-1,-1,9,-1,-1],"loss_changes":[6.179453E3,4.3089844E1,0E0,0E0,1.9471287E1,6.970929E0,0E0,0E0,7.0497575E0,0E0,0E0],"parents":[2147483647,0,0,1,1,4,4,5,5,8,8],"right_children":[2,4,-1,-1,6,8,-1,-1,10,-1,-1],"split_conditions":[1.0242035E-3,3.9985983E-4,5.4551255E-2,-3.0944148E-2,7.572981E-2,3.8961407E-2,4.9130578E-2,-3.0284315E-2,1.18965E-3,-4.9024853E-3,5.3872403E-2],"split_indices":[5,5,0,0,4,4,0,0,0,0,0],"split_type":[0,0,0,0,0,0,0,0,0,0,0],"sum_hessian":[1.5936324E4,1.3414091E4,2.5222332E3,1.3343603E4,7.048833E1,5.08446E1,1.9643723E1,2.0332178E1,3.0512423E1,2.5154083E1,5.3583407E0],"tree_param":{"num_deleted":"0","num_feature":"7","num_nodes":"11","size_leaf_vector":"1"}},{"base_weights":[1.3030161E-1,-6.625545E-1,6.3531715E-1,4.196295E-2,-6.65242E-1,8.5586953E-1,-6.439162E-1,-3.3283442E-2,3.5667088E-2,8.70563E-1,-4.3374085E-1,7.6351964E-1,-6.5329546E-1,8.7365854E-1,-3.9649692E-1,8.646329E-2,-6.323249E-1,4.063009E-2,1.1033668E-2,-3.992103E-1,-6.709018E-1,4.370072E-2,-2.455241E-2,9.148524E-3,-3.0678902E-2,-3.1263053E-2,2.2131111E-2,-1.0776304E-2,-3.2958508E-2,1.0590378E-2,-3.1184936E-2,-2.7878791E-2,-3.3707473E-2],"categories":[],"categories_nodes":[],"categories_segments":[],"categories_sizes":[],"default_left":[0,0,0,0,0,0,0,0,0,0,0,0,0,0,0,0,0,0,0,0,0,0,0,0,0,0,0,0,0,0,0,0,0],"id":27,"left_children":[1,3,5,-1,7,9,11,-1,-1,13,15,17,19,21,23,25,27,-1,-1,29,31,-1,-1,-1,-1,-1,-1,-1,-1,-1,-1,-1,-1],"loss_changes":[8.28536E3,3.305591E1,3.5669663E3,0E0,5.20459E0,2.0468799E2,2.50448E1,0E0,0E0,4.216162E1,1.2671518E1,1.6094065E-1,7.9978027E0,5.595215E0,3.4672098E0,9.053011E0,8.482857E-1,0E0,0E0,1.6894478E1,2.5946045E-1,0E0,0E0,0E0,0E0,0E0,0E0,0E0,0E0,0E0,0E0,0E0,0E0],"parents":[2147483647,0,0,1,1,2,2,4,4,5,5,6,6,9,9,10,10,11,11,12,12,13,13,14,14,15,15,16,16,19,19,20,20],"right_children":[2,4,6,-1,8,10,12,-1,-1,14,16,18,20,22,24,26,28,-1,-1,30,32,-1,-1,-1,-1,-1,-1,-1,-1,-1,-1,-1,-1],"split_conditions":[2.7407072E-3,9.979542E-5,6.786812E-1,4.196295E-2,1.01528E-4,1.0299706E-1,9.696029E-5,-3.3283442E-2,3.5667088E-2,1.8007202E-3,4.289058E-1,7.3745534E-2,7.637989E-1,6.134458E-1,3.115547E-1,1.5389667E-2,1.10194206E-1,4.063009E-2,1.1033668E-2,8.131442E-2,6.1280977E-2,4.370072E-2,-2.455241E-2,9.148524E-3,-3.0678902E-2,-3.1263053E-2,2.2131111E-2,-1.0776304E-2,-3.2958508E-2,1.0590378E-2,-3.1184936E-2,-2.7878791E-2,-3.3707473E-2],"split_indices":[4,0,2,0,0,4,0,0,0,0,2,4,2,1,2,1,4,0,0,4,4,0,0,0,0,0,0,0,0,0,0,0,0],"split_type":[0,0,0,0,0,0,0,0,0,0,0,0,0,0,0,0,0,0,0,0,0,0,0,0,0,0,0,0,0,0,0,0,0],"sum_hessian":[2.0690416E4,8.0507373E3,1.2639679E4,1.3824991E1,8.0369126E3,1.0781222E4,1.8584574E3,8.034942E3,1.9705896E0,1.0660089E4,1.21132904E2,1.1770597E1,1.8466869E3,1.0634418E4,2.5670681E1,3.3622116E1,8.751079E1,1.0338867E1,1.4317305E0,1.2120463E2,1.7254822E3,1.0632005E4,2.4132867E0,7.0387816E0,1.8631899E1,1.0961606E1,2.2660511E1,5.841671E0,8.166912E1,3.2581104E1,8.862353E1,5.288178E1,1.6726005E3],"tree_param":{"num_deleted":"0","num_feature":"7","num_nodes":"33","size_leaf_vector":"1"}},{"base_weights":[1.2719765E-1,8.7633425E-1,-3.3378635E-2,-3.2633338E-2,8.806152E-1,4.4096515E-2,-3.0511929E-2],"categories":[],"categories_nodes":[],"categories_segments":[],"categories_sizes":[],"default_left":[0,0,0,0,0,0,0],"id":28,"left_children":[1,3,-1,-1,5,-1,-1],"loss_changes":[1.2263219E4,6.9975586E1,0E0,0E0,2.1268555E1,0E0,0E0],"parents":[2147483647,0,0,1,1,4,4],"right_children":[2,4,-1,-1,6,-1,-1],"split_conditions":[5.3917933E-2,9.4358486E-1,-3.3378635E-2,-3.2633338E-2,1.0040662E0,4.4096515E-2,-3.0511929E-2],"split_indices":[2,6,0,0,6,0,0],"split_type":[0,0,0,0,0,0,0],"sum_hessian":[2.0594916E4,1.060177E4,9.9931455E3,2.9177223E1,1.0572593E4,1.0563683E4,8.909825E0],"tree_param":{"num_deleted":"0","num_feature":"7","num_nodes":"7","size_leaf_vector":"1"}},{"base_weights":[-3.3797017E-1,-6.085714E-1,5.2060332E-2,-6.128351E-1,1.9695227E-1,-3.0645315E-2,5.88352E-3,-6.1473865E-2,8.1276184E-1,5.306687E-2,-2.031072E-1,5.6725927E-2,3.2904464E-1,-1.557288E-2,4.2406376E-2,-2.6172752E-2,4.7671232E-2],"categories":[],"categories_nodes":[],"categories_segments":[],"categories_sizes":[],"default_left":[0,0,0,0,0,0,0,0,0,0,0,0,0,0,0,0,0],"id":29,"left_children":[1,3,-1,5,7,-1,-1,9,11,-1,13,-1,15,-1,-1,-1,-1],"loss_changes":[5.8013774E3,4.474951E1,0E0,7.4365234E-1,1.10583725E1,0E0,0E0,8.112164E0,2.820136E0,0E0,5.3820896E0,0E0,5.611546E0,0E0,0E0,0E0,0E0],"parents":[2147483647,0,0,1,1,3,3,4,4,7,7,8,8,10,10,12,12],"right_children":[2,4,-1,6,8,-1,-1,10,12,-1,14,-1,16,-1,-1,-1,-1],"split_conditions":[1.0242035E-3,3.9985983E-4,5.2060332E-2,6E-1,8.924587E-4,-3.0645315E-2,5.88352E-3,2.0016313E-1,2.2621086E0,5.306687E-2,4.8462546E-1,5.6725927E-2,1.9936203E-3,-1.557288E-2,4.2406376E-2,-2.6172752E-2,4.7671232E-2],"split_indices":[5,5,0,3,0,0,0,6,6,0,1,0,0,0,0,0,0],"split_type":[0,0,0,0,0,0,0,0,0,0,0,0,0,0,0,0,0],"sum_hessian":[1.5541968E4,1.2993198E4,2.5487703E3,1.2925024E4,6.8173805E1,1.2923926E4,1.0978782E0,4.8655552E1,1.9518257E1,4.722661E0,4.3932888E1,1.0913472E1,8.604785E0,4.0465813E1,3.4670763E0,3.7061794E0,4.898606E0],"tree_param":{"num_deleted":"0","num_feature":"7","num_nodes":"17","size_leaf_vector":"1"}},{"base_weights":[1.2562037E-1,-3.280158E-2,6.1402E-1,8.165302E-1,-6.215352E-1,8.278882E-1,-5.7411164E-1,-5.003127E-2,-6.39708E-1,-3.326092E-2,8.3557904E-1,-3.30227E-2,1.0696865E-1,-2.535764E-1,4.8115557E-1,-3.0732945E-1,-6.539966E-1,3.6468802E-4,4.193791E-2,3.7498653E-2,-2.8659886E-2,2.5380892E-5,-3.1627994E-2,3.993751E-2,-2.575185E-2,-2.8475612E-2,8.330579E-3,-2.8748257E-2,-3.3151094E-2],"categories":[],"categories_nodes":[],"categories_segments":[],"categories_sizes":[],"default_left":[0,0,0,0,0,0,0,0,0,0,0,0,0,0,0,0,0,0,0,0,0,0,0,0,0,0,0,0,0],"id":30,"left_children":[1,-1,3,5,7,9,11,13,15,-1,17,-1,19,21,23,25,27,-1,-1,-1,-1,-1,-1,-1,-1,-1,-1,-1,-1],"loss_changes":[7.718564E3,0E0,3.113976E3,1.6934424E2,1.817279E1,1.2233838E2,5.198797E0,6.079939E0,7.866638E0,0E0,2.777832E1,0E0,5.0972548E0,3.8996E0,5.3504505E0,9.029579E0,7.799072E-1,0E0,0E0,0E0,0E0,0E0,0E0,0E0,0E0,0E0,0E0,0E0,0E0],"parents":[2147483647,0,0,2,2,3,3,4,4,5,5,6,6,7,7,8,8,10,10,12,12,13,13,14,14,15,15,16,16],"right_children":[2,-1,4,6,8,10,12,14,16,-1,18,-1,20,22,24,26,28,-1,-1,-1,-1,-1,-1,-1,-1,-1,-1,-1,-1],"split_conditions":[3.0289055E-8,-3.280158E-2,8.8836916E-2,1.8007202E-3,2.3135754E-1,2.0016313E-1,4.441223E0,1.0040662E0,9.8221034E-2,-3.326092E-2,2.7407072E-3,-3.30227E-2,2.700135E-3,2.9045844E-4,1.003009E-3,5E-2,4.4396538E-1,3.6468802E-4,4.193791E-2,3.7498653E-2,-2.8659886E-2,2.5380892E-5,-3.1627994E-2,3.993751E-2,-2.575185E-2,-2.8475612E-2,8.330579E-3,-2.8748257E-2,-3.3151094E-2],"split_indices":[4,0,4,0,1,6,6,6,4,0,4,0,0,0,0,3,1,0,0,0,0,0,0,0,0,0,0,0,0],"split_type":[0,0,0,0,0,0,0,0,0,0,0,0,0,0,0,0,0,0,0,0,0,0,0,0,0,0,0,0,0],"sum_hessian":[2.021639E4,7.7741016E3,1.244229E4,1.0690441E4,1.7518484E3,1.0604237E4,8.620438E1,5.410453E1,1.6977438E3,5.3903458E1,1.0550334E4,7.653244E1,9.671939E0,3.949362E1,1.461091E1,7.090368E1,1.6268401E3,4.0352516E1,1.0509981E4,4.919033E0,4.752906E0,2.4240553E1,1.5253067E1,1.12291565E1,3.381754E0,4.552032E1,2.5383362E1,1.733736E2,1.4534666E3],"tree_param":{"num_deleted":"0","num_feature":"7","num_nodes":"29","size_leaf_vector":"1"}},{"base_weights":[1.2520188E-1,8.5171455E-1,-6.545475E-1,-3.0897865E-2,4.2677794E-2,-8.6235866E-2,-3.2899853E-2,6.058234E-1,-3.2261655E-2,-2.7751574E-2,4.4125345E-2],"categories":[],"categories_nodes":[],"categories_segments":[],"categories_sizes":[],"default_left":[0,0,0,0,0,0,0,0,0,0,0],"id":31,"left_children":[1,3,5,-1,-1,7,-1,9,-1,-1,-1],"loss_changes":[1.1500987E4,2.896875E1,1.9140137E1,0E0,0E0,2.3691101E1,0E0,9.299191E0,0E0,0E0,0E0],"parents":[2147483647,0,0,1,1,2,2,5,5,7,7],"right_children":[2,4,6,-1,-1,8,-1,10,-1,-1,-1],"split_conditions":[2.7407072E-3,8.773185E-1,1.4591127E-4,-3.0897865E-2,4.2677794E-2,1.5389667E-2,-3.2899853E-2,9.714869E-5,-3.2261655E-2,-2.7751574E-2,4.4125345E-2],"split_indices":[4,6,5,0,0,1,0,0,0,0,0],"split_type":[0,0,0,0,0,0,0,0,0,0,0],"sum_hessian":[2.0299926E4,1.0508651E4,9.791274E3,1.2730923E1,1.049592E4,5.9229153E1,9.732045E3,2.642735E1,3.2801804E1,4.8928514E0,2.1534496E1],"tree_param":{"num_deleted":"0","num_feature":"7","num_nodes":"11","size_leaf_vector":"1"}},{"base_weights":[-3.324442E-1,-6.030015E-1,4.98919E-2,-6.0716337E-1,1.7983644E-1,-3.0361576E-2,-1.4988846E-1,-3.1681398E-1,8.355791E-1,5.7435236E-3,-1.7198162E-2,-5.5741745E-1,8.550273E-2,3.376933E-1,5.2259672E-2,-2.9758811E-2,7.3484555E-3,-2.038174E-2,2.2119103E-2,-1.9099693E-3,3.4639727E-2],"categories":[],"categories_nodes":[],"categories_segments":[],"categories_sizes":[],"default_left":[0,0,0,0,0,0,0,0,0,0,0,0,0,0,0,0,0,0,0,0,0],"id":32,"left_children":[1,3,-1,5,7,-1,9,11,13,-1,-1,15,17,19,-1,-1,-1,-1,-1,-1,-1],"loss_changes":[5.461539E3,4.1190918E1,0E0,2.998047E-1,2.2232113E1,0E0,2.037538E-1,3.8331747E0,2.7095947E0,0E0,0E0,7.418809E-1,2.9085789E0,1.3841485E0,0E0,0E0,0E0,0E0,0E0,0E0,0E0],"parents":[2147483647,0,0,1,1,3,3,4,4,6,6,7,7,8,8,11,11,12,12,13,13],"right_children":[2,4,-1,6,8,-1,10,12,14,-1,-1,16,18,20,-1,-1,-1,-1,-1,-1,-1],"split_conditions":[1.0242035E-3,3.9985983E-4,4.98919E-2,8.0090827E-1,4.289058E-1,-3.0361576E-2,9.6390184E-5,3.051079E-1,5.4602087E-1,5.7435236E-3,-1.7198162E-2,2.5E-1,1.9868865E-4,4.969438E-4,5.2259672E-2,-2.9758811E-2,7.3484555E-3,-2.038174E-2,2.2119103E-2,-1.9099693E-3,3.4639727E-2],"split_indices":[5,5,0,2,2,0,0,2,2,0,0,3,0,0,0,0,0,0,0,0,0],"split_type":[0,0,0,0,0,0,0,0,0,0,0,0,0,0,0,0,0,0,0,0,0],"sum_hessian":[1.5171746E4,1.2608029E4,2.563717E3,1.2541577E4,6.6451904E1,1.2539381E4,2.196436E0,3.810703E1,2.8344873E1,1.1016564E0,1.0947794E0,2.3604786E1,1.4502243E1,9.171446E0,1.9173428E1,2.255098E1,1.0538054E0,6.029052E0,8.473191E0,4.8888144E0,4.2826314E0],"tree_param":{"num_deleted":"0","num_feature":"7","num_nodes":"21","size_leaf_vector":"1"}},{"base_weights":[1.2237971E-1,-6.3738406E-1,5.9749305E-1,4.1521754E-2,-6.448093E-1,8.2571226E-1,-3.296695E-2,-3.2370508E-2,3.9820727E-2,8.270425E-1,-3.0450776E-2,4.1490313E-2,4.5554572E-1,3.3157688E-2,-7.6660896E-3],"categories":[],"categories_nodes":[],"categories_segments":[],"categories_sizes":[],"default_left":[0,0,0,0,0,0,0,0,0,0,0,0,0,0,0],"id":33,"left_children":[1,3,5,-1,7,9,-1,-1,-1,11,-1,-1,13,-1,-1],"loss_changes":[7.1538115E3,8.363965E1,3.4979111E3,0E0,2.895581E1,2.0199707E1,0E0,0E0,0E0,1.0208008E1,0E0,0E0,1.0006241E1,0E0,0E0],"parents":[2147483647,0,0,1,1,2,2,4,4,5,5,9,9,12,12],"right_children":[2,4,6,-1,8,10,-1,-1,-1,12,-1,-1,14,-1,-1],"split_conditions":[5.3917933E-2,9.4358486E-1,1.0242035E-3,4.1521754E-2,1.01528E-4,6.310966E-1,-3.296695E-2,-3.2370508E-2,3.9820727E-2,3.9985983E-4,-3.0450776E-2,4.1490313E-2,4.3938732E-1,3.3157688E-2,-7.6660896E-3],"split_indices":[2,6,5,0,0,1,0,0,0,5,0,0,2,0,0],"split_type":[0,0,0,0,0,0,0,0,0,0,0,0,0,0,0],"sum_hessian":[1.981603E4,7.6239956E3,1.2192033E4,3.781542E1,7.58618E3,1.0318681E4,1.8733528E3,7.5730645E3,1.3115798E1,1.0309545E4,9.135459E0,1.023219E4,7.735529E1,5.7619404E1,1.9735886E1],"tree_param":{"num_deleted":"0","num_feature":"7","num_nodes":"15","size_leaf_vector":"1"}},{"base_weights":[1.21898204E-1,8.262503E-1,-6.4499974E-1,-3.0615753E-2,8.280156E-1,-1.829341E-2,-3.2453395E-2,4.1413892E-2,-2.3548236E-2,6.669708E-1,-3.1774435E-2,-2.647514E-2,4.371515E-2],"categories":[],"categories_nodes":[],"categories_segments":[],"categories_sizes":[],"default_left":[0,0,0,0,0,0,0,0,0,0,0,0,0],"id":34,"left_children":[1,3,5,-1,7,9,-1,-1,-1,11,-1,-1,-1],"loss_changes":[1.0680646E4,2.6680176E1,2.4123047E1,0E0,3.895996E0,2.6680782E1,0E0,0E0,0E0,7.881774E0,0E0,0E0,0E0],"parents":[2147483647,0,0,1,1,2,2,4,4,5,5,9,9],"right_children":[2,4,6,-1,8,10,-1,-1,-1,12,-1,-1,-1],"split_conditions":[2.7407072E-3,9.979542E-5,1.4591127E-4,-3.0615753E-2,1.01528E-4,1.5389667E-2,-3.2453395E-2,4.1413892E-2,-2.3548236E-2,9.714869E-5,-3.1774435E-2,-2.647514E-2,4.371515E-2],"split_indices":[4,0,5,0,0,1,0,0,0,0,0,0,0],"split_type":[0,0,0,0,0,0,0,0,0,0,0,0,0],"sum_hessian":[1.9770902E4,1.0305661E4,9.465241E3,1.2207019E1,1.0293454E4,6.1081657E1,9.404159E3,1.0291739E4,1.7148757E0,2.8906492E1,3.2175163E1,4.039787E0,2.4866707E1],"tree_param":{"num_deleted":"0","num_feature":"7","num_nodes":"13","size_leaf_vector":"1"}},{"base_weights":[-3.2844973E-1,-5.975465E-1,4.7968294E-2,-6.0178804E-1,1.4114955E-1,-3.0093158E-2,6.13519E-3,-3.4712642E-1,7.903617E-1,-5.2903485E-1,8.6676605E-2,2.417208E-1,4.5179933E-2,-2.9747222E-2,1.587389E-2,-3.435349E-3,4.0210627E-2,4.066508E-2,-2.2693653E-2],"categories":[],"categories_nodes":[],"categories_segments":[],"categories_sizes":[],"default_left":[0,0,0,0,0,0,0,0,0,0,0,0,0,0,0,0,0,0,0],"id":35,"left_children":[1,3,-1,5,7,-1,-1,9,11,13,15,17,-1,-1,-1,-1,-1,-1,-1],"loss_changes":[5.0786484E3,3.806299E1,0E0,7.294922E-1,2.2467745E1,0E0,0E0,3.2539253E0,1.6676369E0,1.7948055E0,1.4901829E0,2.9769316E0,0E0,0E0,0E0,0E0,0E0,0E0,0E0],"parents":[2147483647,0,0,1,1,3,3,4,4,7,7,8,8,9,9,10,10,11,11],"right_children":[2,4,-1,6,8,-1,-1,10,12,14,16,18,-1,-1,-1,-1,-1,-1,-1],"split_conditions":[1.0242035E-3,3.9985983E-4,4.7968294E-2,6E-1,4.2338407E-1,-3.0093158E-2,6.13519E-3,3.1426784E-1,1.9776526E-4,2.5E-1,1.003009E-3,2.0016313E-1,4.5179933E-2,-2.9747222E-2,1.587389E-2,-3.435349E-3,4.0210627E-2,4.066508E-2,-2.2693653E-2],"split_indices":[5,5,0,3,2,0,0,2,0,3,0,6,0,0,0,0,0,0,0],"split_type":[0,0,0,0,0,0,0,0,0,0,0,0,0,0,0,0,0,0,0],"sum_hessian":[1.4652349E4,1.2120279E4,2.532069E3,1.2051268E4,6.901186E1,1.2050188E4,1.0796498E0,3.9653538E1,2.9358328E1,2.7783455E1,1.1870082E1,5.5590405E0,2.3799286E1,2.605221E1,1.7312453E0,1.0500441E1,1.3696418E0,2.9586504E0,2.60039E0],"tree_param":{"num_deleted":"0","num_feature":"7","num_nodes":"19","size_leaf_vector":"1"}},{"base_weights":[1.19503886E-1,-6.352392E-1,5.803677E-1,3.924502E-2,-6.3843894E-1,7.805887E-1,-6.2126356E-1,-3.193822E-2,2.8764263E-2,7.943893E-1,-3.5435727E-1,6.565575E-1,-6.2804985E-1,7.970216E-1,-5.5728626E-1,1.100409E-1,-3.1595033E-2,3.5720114E-2,9.354346E-3,-4.113331E-1,-3.2261923E-2,3.9957844E-2,2.5434855E-2,-7.091398E-3,-3.1249532E-2,1.4854762E-2,-2.640374E-2,4.4904663E-3,-3.289196E-2],"categories":[],"categories_nodes":[],"categories_segments":[],"categories_sizes":[],"default_left":[0,0,0,0,0,0,0,0,0,0,0,0,0,0,0,0,0,0,0,0,0,0,0,0,0,0,0,0,0],"id":36,"left_children":[1,3,5,-1,7,9,11,-1,-1,13,15,17,19,21,23,25,-1,-1,-1,27,-1,-1,-1,-1,-1,-1,-1,-1,-1],"loss_changes":[6.692825E3,3.364966E1,2.874702E3,0E0,3.243164E0,1.6068018E2,1.5213196E1,0E0,0E0,3.6444824E1,1.6015738E1,1.24482155E-1,6.060913E0,5.810547E0,4.810791E-1,5.782683E0,0E0,0E0,0E0,1.5817171E1,0E0,0E0,0E0,0E0,0E0,0E0,0E0,0E0,0E0],"parents":[2147483647,0,0,1,1,2,2,4,4,5,5,6,6,9,9,10,10,11,11,12,12,13,13,14,14,15,15,19,19],"right_children":[2,4,6,-1,8,10,12,-1,-1,14,16,18,20,22,24,26,-1,-1,-1,28,-1,-1,-1,-1,-1,-1,-1,-1,-1],"split_conditions":[2.7407072E-3,9.979542E-5,6.786812E-1,3.924502E-2,1.01528E-4,9.8221034E-2,9.696029E-5,-3.193822E-2,2.8764263E-2,2.205956E-3,4.6997178E-1,7.3745534E-2,7.572981E-2,1.18965E-3,3.115547E-1,9.6721156E-4,-3.1595033E-2,3.5720114E-2,9.354346E-3,8.3116835E-1,-3.2261923E-2,3.9957844E-2,2.5434855E-2,-7.091398E-3,-3.1249532E-2,1.4854762E-2,-2.640374E-2,4.4904663E-3,-3.289196E-2],"split_indices":[4,0,2,0,0,4,0,0,0,0,2,4,4,0,2,0,0,0,0,2,0,0,0,0,0,0,0,0,0],"split_type":[0,0,0,0,0,0,0,0,0,0,0,0,0,0,0,0,0,0,0,0,0,0,0,0,0,0,0,0,0],"sum_hessian":[1.9239387E4,7.2939395E3,1.1945448E4,1.5847872E1,7.2780913E3,1.0239628E4,1.7058204E3,7.276614E3,1.4775597E0,1.0116909E4,1.22718895E2,8.505588E0,1.6973148E3,1.0097654E4,1.9254313E1,4.6132084E1,7.658681E1,7.108064E0,1.3975236E0,1.2656008E2,1.5707548E3,1.0021666E4,7.5988014E1,3.1317265E0,1.6122585E1,3.608787E1,1.0044216E1,4.193752E1,8.462256E1],"tree_param":{"num_deleted":"0","num_feature":"7","num_nodes":"29","size_leaf_vector":"1"}},{"base_weights":[1.175931E-1,8.0042297E-1,-3.2035254E-2,-3.1287696E-2,8.042096E-1,4.0276185E-2,-2.9240424E-2],"categories":[],"categories_nodes":[],"categories_segments":[],"categories_sizes":[],"default_left":[0,0,0,0,0,0,0],"id":37,"left_children":[1,3,-1,-1,5,-1,-1],"loss_changes":[1.002078E4,5.549707E1,0E0,0E0,1.9009766E1,0E0,0E0],"parents":[2147483647,0,0,1,1,4,4],"right_children":[2,4,-1,-1,6,-1,-1],"split_conditions":[5.3917933E-2,9.4358486E-1,-3.2035254E-2,-3.1287696E-2,1.0040662E0,4.0276185E-2,-2.9240424E-2],"split_indices":[2,6,0,0,6,0,0],"split_type":[0,0,0,0,0,0,0],"sum_hessian":[1.9351043E4,1.0182175E4,9.168867E3,2.6528116E1,1.0155646E4,1.0146468E4,9.179101E0],"tree_param":{"num_deleted":"0","num_feature":"7","num_nodes":"7","size_leaf_vector":"1"}},{"base_weights":[-3.2741052E-1,-5.819816E-1,8.7380236E-1,-5.881966E-1,5.96647E-1,3.0163658E-1,9.072273E-1,4.646431E-2,-5.913021E-1,4.746271E-2,-3.4371033E-1,-1.9374366E-1,8.492481E-1,-2.8535236E-2,9.0895545E-1,-5.939403E-1,3.0239036E-2,-2.8384298E-2,3.6668453E-2,4.4808295E-2,-5.5785865E-1,4.7524404E-2,6.046863E-1,-2.2326713E-2,3.174378E-2,8.031145E-1,4.587003E-2,-2.9726466E-2,-1.5297673E-2,-2.3120452E-2,2.6294276E-2,-2.8572232E-2,2.0730381E-3,-2.4771765E-2,4.4514205E-2,1.8151857E-2,4.5298126E-2],"categories":[],"categories_nodes":[],"categories_segments":[],"categories_sizes":[],"default_left":[0,0,0,0,0,0,0,0,0,0,0,0,0,0,0,0,0,0,0,0,0,0,0,0,0,0,0,0,0,0,0,0,0,0,0,0,0],"id":38,"left_children":[1,3,5,7,9,11,13,-1,15,-1,17,19,21,23,25,27,29,-1,-1,-1,31,-1,33,-1,-1,35,-1,-1,-1,-1,-1,-1,-1,-1,-1,-1,-1],"loss_changes":[4.353912E3,8.640332E1,4.7344604E1,5.5621582E1,2.0922783E1,3.785166E1,3.8295898E0,0E0,1.9142822E1,0E0,4.6800394E0,2.9769993E1,1.0635796E0,1.7546438E0,1.3614502E0,1.7880859E0,1.2512803E1,0E0,0E0,0E0,4.7886658E-1,0E0,7.391366E0,0E0,0E0,7.886261E0,0E0,0E0,0E0,0E0,0E0,0E0,0E0,0E0,0E0,0E0,0E0],"parents":[2147483647,0,0,1,1,2,2,3,3,4,4,5,5,6,6,8,8,10,10,11,11,12,12,13,13,14,14,15,15,16,16,20,20,22,22,25,25],"right_children":[2,4,6,8,10,12,14,-1,16,-1,18,20,22,24,26,28,30,-1,-1,-1,32,-1,34,-1,-1,36,-1,-1,-1,-1,-1,-1,-1,-1,-1,-1,-1],"split_conditions":[5.8613575E-1,1.3818971E-3,6.050252E-2,2.0016313E-1,3.8100543E0,5.806077E-4,9.7575255E-5,4.646431E-2,9.310485E-2,4.746271E-2,2.700135E-3,2.454112E-1,1.9107379E0,4.8462546E-1,7.3225677E-1,1.18965E-3,4.8508367E-4,-2.8384298E-2,3.6668453E-2,4.4808295E-2,8.0090827E-1,4.7524404E-2,2.205956E-3,-2.2326713E-2,3.174378E-2,8.8836916E-2,4.587003E-2,-2.9726466E-2,-1.5297673E-2,-2.3120452E-2,2.6294276E-2,-2.8572232E-2,2.0730381E-3,-2.4771765E-2,4.4514205E-2,1.8151857E-2,4.5298126E-2],"split_indices":[2,0,4,6,6,0,0,0,4,0,0,6,6,1,2,0,0,0,0,0,2,0,0,0,0,4,0,0,0,0,0,0,0,0,0,0,0],"split_type":[0,0,0,0,0,0,0,0,0,0,0,0,0,0,0,0,0,0,0,0,0,0,0,0,0,0,0,0,0,0,0,0,0,0,0,0,0],"sum_hessian":[1.4235392E4,1.1746492E4,2.4888994E3,1.1685375E4,6.1116894E1,1.3792542E2,2.3509739E3,2.3255846E1,1.1662119E4,4.444269E1,1.6674202E1,7.275553E1,6.516989E1,4.305168E0,2.3466687E3,1.1612871E4,4.9248447E1,1.4195274E1,2.4789276E0,1.7853432E1,5.49021E1,4.404876E1,2.1121132E1,2.8416345E0,1.4635335E0,1.8050607E2,2.1661628E3,1.1588106E4,2.4764383E1,2.4732563E1,2.4515884E1,5.373059E1,1.1715105E0,4.201651E0,1.691948E1,3.5051918E1,1.4545415E2],"tree_param":{"num_deleted":"0","num_feature":"7","num_nodes":"37","size_leaf_vector":"1"}},{"base_weights":[1.1715699E-1,-6.215997E-1,5.687241E-1,3.918538E-2,-6.287716E-1,7.8221744E-1,-3.216886E-2,-3.1557795E-2,3.7246343E-2,7.8330886E-1,-2.9022995E-2,3.9285317E-2,4.6418476E-1,2.8729737E-2,-3.2769408E-2],"categories":[],"categories_nodes":[],"categories_segments":[],"categories_sizes":[],"default_left":[0,0,0,0,0,0,0,0,0,0,0,0,0,0,0],"id":39,"left_children":[1,3,5,-1,7,9,-1,-1,-1,11,-1,-1,13,-1,-1],"loss_changes":[6.2908267E3,7.25957E1,3.029079E3,0E0,2.3784668E1,1.5254883E1,0E0,0E0,0E0,7.2436523E0,0E0,0E0,9.844112E0,0E0,0E0],"parents":[2147483647,0,0,1,1,2,2,4,4,5,5,9,9,12,12],"right_children":[2,4,6,-1,8,10,-1,-1,-1,12,-1,-1,14,-1,-1],"split_conditions":[5.3917933E-2,9.4358486E-1,1.0242035E-3,3.918538E-2,1.01528E-4,6.310966E-1,-3.216886E-2,-3.1557795E-2,3.7246343E-2,3.9985983E-4,-2.9022995E-2,3.9285317E-2,5.4602087E-1,2.8729737E-2,-3.2769408E-2],"split_indices":[2,6,5,0,0,1,0,0,0,5,0,0,2,0,0],"split_type":[0,0,0,0,0,0,0,0,0,0,0,0,0,0,0],"sum_hessian":[1.8855436E4,7.152948E3,1.1702487E4,3.5769497E1,7.1171787E3,9.950255E3,1.7522324E3,7.1053867E3,1.1792277E1,9.942717E3,7.5385427E0,9.867126E3,7.559068E1,6.924832E1,6.342355E0],"tree_param":{"num_deleted":"0","num_feature":"7","num_nodes":"15","size_leaf_vector":"1"}},{"base_weights":[1.1852114E-1,7.7958125E-1,-3.164368E-2,7.829896E-1,-3.0676275E-2,-2.9140396E-2,7.8428614E-1,3.922466E-2,-1.9460885E-2],"categories":[],"categories_nodes":[],"categories_segments":[],"categories_sizes":[],"default_left":[0,0,0,0,0,0,0,0,0],"id":40,"left_children":[1,3,-1,5,-1,-1,7,-1,-1],"loss_changes":[9.40876E3,4.8325684E1,0E0,1.8257812E1,0E0,0E0,2.7456055E0,0E0,0E0],"parents":[2147483647,0,0,1,1,3,3,6,6],"right_children":[2,4,-1,6,-1,-1,8,-1,-1],"split_conditions":[5.3917933E-2,1.5389667E-2,-3.164368E-2,9.867285E-5,-3.0676275E-2,-2.9140396E-2,1.01528E-4,3.922466E-2,-1.9460885E-2],"split_indices":[2,1,0,0,0,0,0,0,0],"split_type":[0,0,0,0,0,0,0,0,0],"sum_hessian":[1.8939893E4,1.0075584E4,8.86431E3,1.0051431E4,2.415377E1,9.106924E0,1.0042323E4,1.0040883E4,1.4401777E0],"tree_param":{"num_deleted":"0","num_feature":"7","num_nodes":"9","size_leaf_vector":"1"}},{"base_weights":[-3.1980723E-1,-5.9180963E-1,8.7460923E-1,-2.9594406E-2,6.016932E-3,2.074471E-1,8.931463E-1,-2.7978006E-1,7.7191406E-1,4.7161993E-2,4.432271E-2,-3.8129678E-1,4.0287834E-2,6.391368E-2,8.5568756E-1,-2.892445E-2,-7.097844E-3,2.2970462E-2,-1.12353945E-2,2.7127046E-2,4.7293775E-2],"categories":[],"categories_nodes":[],"categories_segments":[],"categories_sizes":[],"default_left":[0,0,0,0,0,0,0,0,0,0,0,0,0,0,0,0,0,0,0,0,0],"id":41,"left_children":[1,3,5,-1,-1,7,9,11,13,-1,-1,15,-1,17,19,-1,-1,-1,-1,-1,-1],"loss_changes":[4.494545E3,7.01416E-1,3.155127E1,0E0,0E0,1.965367E1,9.765625E-4,4.5684032E0,1.90312E0,0E0,0E0,1.6187987E0,0E0,6.2525964E-1,3.1814957E-1,0E0,0E0,0E0,0E0,0E0,0E0],"parents":[2147483647,0,0,1,1,2,2,5,5,6,6,7,7,8,8,11,11,13,13,14,14],"right_children":[2,4,6,-1,-1,8,10,12,14,-1,-1,16,-1,18,20,-1,-1,-1,-1,-1,-1],"split_conditions":[3.9985983E-4,6E-1,1.0242035E-3,-2.9594406E-2,6.016932E-3,4.2338407E-1,8.8836916E-2,9.310485E-2,4.902562E-2,4.7161993E-2,4.432271E-2,4.1108567E-2,4.0287834E-2,4.7166184E-1,6.5247074E-2,-2.892445E-2,-7.097844E-3,2.2970462E-2,-1.12353945E-2,2.7127046E-2,4.7293775E-2],"split_indices":[5,3,5,0,0,2,4,4,4,0,0,4,0,6,4,0,0,0,0,0,0],"split_type":[0,0,0,0,0,0,0,0,0,0,0,0,0,0,0,0,0,0,0,0,0],"sum_hessian":[1.383171E4,1.1266512E4,2.5651982E3,1.1265438E4,1.0730946E0,6.9676476E1,2.495522E3,3.7667564E1,3.200891E1,2.7759695E2,2.2179248E3,3.5039505E1,2.6280596E0,3.573223E0,2.843569E1,1.843439E1,1.6605116E1,1.2578571E0,2.3153658E0,7.927127E0,2.0508562E1],"tree_param":{"num_deleted":"0","num_feature":"7","num_nodes":"21","size_leaf_vector":"1"}},{"base_weights":[1.15504384E-1,-6.2004846E-1,5.5245143E-1,3.7039146E-2,-6.231238E-1,7.5993484E-1,-3.1782415E-2,-3.1178713E-2,3.1239634E-2,7.628254E-1,9.799777E-2,7.648734E-1,4.7786164E-1,4.0337387E-1,-5.6663036E-1,2.2896923E-2,3.8308434E-2,2.8339744E-2,-3.1957876E-2,-2.8926713E-2,4.017423E-2,-1.0347474E-2,-3.1001179E-2],"categories":[],"categories_nodes":[],"categories_segments":[],"categories_sizes":[],"default_left":[0,0,0,0,0,0,0,0,0,0,0,0,0,0,0,0,0,0,0,0,0,0,0],"id":42,"left_children":[1,3,5,-1,7,9,-1,-1,-1,11,13,15,17,19,21,-1,-1,-1,-1,-1,-1,-1,-1],"loss_changes":[5.8970596E3,2.9077637E1,2.837911E3,0E0,4.2248535E0,1.8675781E1,0E0,0E0,0E0,5.3286133E0,9.109002E0,3.4995117E0,7.5431004E0,1.2472485E1,1.4420891E-1,0E0,0E0,0E0,0E0,0E0,0E0,0E0,0E0],"parents":[2147483647,0,0,1,1,2,2,4,4,5,5,9,9,10,10,11,11,12,12,13,13,14,14],"right_children":[2,4,6,-1,8,10,-1,-1,-1,12,14,16,18,20,22,-1,-1,-1,-1,-1,-1,-1,-1],"split_conditions":[2.7407072E-3,9.979542E-5,1.0242035E-3,3.7039146E-2,1.01528E-4,9.8221034E-2,-3.1782415E-2,-3.1178713E-2,3.1239634E-2,3.9985983E-4,3.6344636E-4,5.3917933E-2,5.4602087E-1,5.3917933E-2,2.9727988E-4,2.2896923E-2,3.8308434E-2,2.8339744E-2,-3.1957876E-2,-2.8926713E-2,4.017423E-2,-1.0347474E-2,-3.1001179E-2],"split_indices":[4,0,5,0,0,4,0,0,0,5,5,2,2,2,0,0,0,0,0,0,0,0,0],"split_type":[0,0,0,0,0,0,0,0,0,0,0,0,0,0,0,0,0,0,0,0,0,0,0],"sum_hessian":[1.8346105E4,6.836754E3,1.1509351E4,1.4874741E1,6.8218794E3,9.798546E3,1.7108053E3,6.819918E3,1.9613265E0,9.755791E3,4.2754295E1,9.684506E3,7.12853E1,2.956375E1,1.3190546E1,4.2185455E1,9.64232E3,6.648461E1,4.8006926E0,8.42995E0,2.1133799E1,2.3352408E0,1.0855305E1],"tree_param":{"num_deleted":"0","num_feature":"7","num_nodes":"23","size_leaf_vector":"1"}},{"base_weights":[1.14372954E-1,7.6041096E-1,-3.1274684E-2,-3.0457512E-2,7.639639E-1,3.8265448E-2,-2.8749097E-2],"categories":[],"categories_nodes":[],"categories_segments":[],"categories_sizes":[],"default_left":[0,0,0,0,0,0,0],"id":43,"left_children":[1,3,-1,-1,5,-1,-1],"loss_changes":[8.776503E3,4.8163086E1,0E0,0E0,1.804834E1,0E0,0E0],"parents":[2147483647,0,0,1,1,4,4],"right_children":[2,4,-1,-1,6,-1,-1],"split_conditions":[5.3917933E-2,9.4358486E-1,-3.1274684E-2,-3.0457512E-2,1.0040662E0,3.8265448E-2,-2.8749097E-2],"split_indices":[2,6,0,0,6,0,0],"split_type":[0,0,0,0,0,0,0],"sum_hessian":[1.8359582E4,9.801268E3,8.558315E3,2.4919775E1,9.776348E3,9.766965E3,9.383193E0],"tree_param":{"num_deleted":"0","num_feature":"7","num_nodes":"7","size_leaf_vector":"1"}},{"base_weights":[-3.1598264E-1,-2.936191E-2,8.4643143E-1,1.9036114E-1,4.3212954E-2,-2.8719267E-2,4.4553897E-1,1.4873455E-1,8.247054E-1,-2.906589E-3,4.47567E-2,1.8230211E-2,4.3439858E-2],"categories":[],"categories_nodes":[],"categories_segments":[],"categories_sizes":[],"default_left":[0,0,0,0,0,0,0,0,0,0,0,0,0],"id":44,"left_children":[1,-1,3,5,-1,-1,7,9,11,-1,-1,-1,-1],"loss_changes":[4.2408867E3,0E0,2.960083E1,1.3644064E1,0E0,0E0,5.7298E0,4.744447E0,1.4199352E-1,0E0,0E0,0E0,0E0],"parents":[2147483647,0,0,2,2,3,3,6,6,7,7,8,8],"right_children":[2,-1,4,6,-1,-1,8,10,12,-1,-1,-1,-1],"split_conditions":[3.9985983E-4,-2.936191E-2,1.0242035E-3,3.8961407E-2,4.3212954E-2,-2.8719267E-2,7.572981E-2,1.18965E-3,1.9819642E-4,-2.906589E-3,4.47567E-2,1.8230211E-2,4.3439858E-2],"split_indices":[5,0,5,4,0,0,4,0,0,0,0,0,0],"split_type":[0,0,0,0,0,0,0,0,0,0,0,0,0],"sum_hessian":[1.3447267E4,1.09033955E4,2.5438708E3,6.7605705E1,2.4762651E3,1.6601496E1,5.1004208E1,2.9390299E1,2.161391E1,2.3734377E1,5.655921E0,2.700734E0,1.8913177E1],"tree_param":{"num_deleted":"0","num_feature":"7","num_nodes":"13","size_leaf_vector":"1"}},{"base_weights":[1.1264214E-1,-3.0831728E-2,5.3787977E-1,7.2093004E-1,-5.976263E-1,7.334208E-1,-3.4942576E-1,3.4359068E-2,-6.058648E-1,7.361058E-1,-4.6189696E-1,8.665995E-3,-5.788317E-1,-3.8125405E-1,-6.216909E-1,-3.1769373E-2,3.691438E-2,2.2221508E-2,-2.7149418E-2,-2.8717756E-2,8.379435E-3,-9.58106E-3,-3.0849991E-2,6.034893E-3,-2.9034067E-2,-2.684254E-2,-3.127164E-2],"categories":[],"categories_nodes":[],"categories_segments":[],"categories_sizes":[],"default_left":[0,0,0,0,0,0,0,0,0,0,0,0,0,0,0,0,0,0,0,0,0,0,0,0,0,0,0],"id":45,"left_children":[1,-1,3,5,7,9,11,-1,13,15,17,19,21,23,25,-1,-1,-1,-1,-1,-1,-1,-1,-1,-1,-1,-1],"loss_changes":[5.5316797E3,0E0,2.342395E3,1.2998828E2,1.6978882E1,3.1125488E1,9.255648E0,0E0,5.291687E0,2.910791E1,1.8664784E0,4.2617326E0,8.963871E-1,1.0576841E1,1.2506104E-1,0E0,0E0,0E0,0E0,0E0,0E0,0E0,0E0,0E0,0E0,0E0,0E0],"parents":[2147483647,0,0,2,2,3,3,4,4,5,5,6,6,8,8,9,9,10,10,11,11,12,12,13,13,14,14],"right_children":[2,-1,4,6,8,10,12,-1,14,16,18,20,22,24,26,-1,-1,-1,-1,-1,-1,-1,-1,-1,-1,-1,-1],"split_conditions":[3.0289055E-8,-3.0831728E-2,6.786812E-1,9.8221034E-2,9.696029E-5,1.9936203E-3,4.6997178E-1,3.4359068E-2,7.637989E-1,2.0016313E-1,1.3887301E-1,5.3917933E-2,1.10194206E-1,8.131442E-2,8.3116835E-1,-3.1769373E-2,3.691438E-2,2.2221508E-2,-2.7149418E-2,-2.8717756E-2,8.379435E-3,-9.58106E-3,-3.0849991E-2,6.034893E-3,-2.9034067E-2,-2.684254E-2,-3.127164E-2],"split_indices":[4,0,2,4,0,0,2,0,2,6,2,2,4,4,2,0,0,0,0,0,0,0,0,0,0,0,0],"split_type":[0,0,0,0,0,0,0,0,0,0,0,0,0,0,0,0,0,0,0,0,0,0,0,0,0,0,0],"sum_hessian":[1.7835389E4,6.5690713E3,1.1266316E4,9.70257E3,1.5637463E3,9.590962E3,1.11608826E2,9.438126E0,1.5543082E3,9.56985E3,2.111239E1,4.395671E1,6.7652115E1,1.0395954E2,1.4503486E3,1.4738682E1,9.55511E3,1.3658794E0,1.974651E1,8.855504E0,3.5101208E1,6.6104503E0,6.1041664E1,2.967168E1,7.4287865E1,6.736886E1,1.3829797E3],"tree_param":{"num_deleted":"0","num_feature":"7","num_nodes":"27","size_leaf_vector":"1"}},{"base_weights":[1.15141235E-1,7.431321E-1,-3.0928021E-2,-3.0114207E-2,7.465404E-1,3.738346E-2,-2.801525E-2],"categories":[],"categories_nodes":[],"categories_segments":[],"categories_sizes":[],"default_left":[0,0,0,0,0,0,0],"id":46,"left_children":[1,3,-1,-1,5,-1,-1],"loss_changes":[8.246806E3,4.4671875E1,0E0,0E0,1.4608887E1,0E0,0E0],"parents":[2147483647,0,0,1,1,4,4],"right_children":[2,4,-1,-1,6,-1,-1],"split_conditions":[5.3917933E-2,9.4358486E-1,-3.0928021E-2,-3.0114207E-2,1.0040662E0,3.738346E-2,-2.801525E-2],"split_indices":[2,6,0,0,6,0,0],"split_type":[0,0,0,0,0,0,0],"sum_hessian":[1.789635E4,9.642831E3,8.253518E3,2.3922178E1,9.618909E3,9.611036E3,7.872936E0],"tree_param":{"num_deleted":"0","num_feature":"7","num_nodes":"7","size_leaf_vector":"1"}},{"base_weights":[-3.1179395E-1,-5.6943196E-1,7.8163755E-1,-5.7478684E-1,4.6568054E-1,3.0765906E-1,8.2190764E-1,4.3335397E-2,-5.780151E-1,4.284923E-2,-2.89939E-1,-1.354796E-1,7.581244E-1,-3.6663237E-1,8.2506526E-1,-5.8044964E-1,-3.5869598E-1,-2.7946306E-2,3.6949433E-2,7.73005E-1,-4.8068452E-1,4.2334642E-2,5.324497E-1,-2.3986457E-2,3.8246468E-3,6.8194234E-1,4.153612E-2,-2.9029101E-2,9.880252E-3,4.9642734E-2,-2.9099463E-2,4.345087E-3,4.1069012E-2,-2.8146181E-2,1.0154642E-2,-2.593544E-2,3.9697487E-2,9.264375E-3,3.8001128E-2],"categories":[],"categories_nodes":[],"categories_segments":[],"categories_sizes":[],"default_left":[0,0,0,0,0,0,0,0,0,0,0,0,0,0,0,0,0,0,0,0,0,0,0,0,0,0,0,0,0,0,0,0,0,0,0,0,0,0,0],"id":47,"left_children":[1,3,5,7,9,11,13,-1,15,-1,17,19,21,23,25,27,29,-1,-1,31,33,-1,35,-1,-1,37,-1,-1,-1,-1,-1,-1,-1,-1,-1,-1,-1,-1,-1],"loss_changes":[3.65873E3,5.8525146E1,4.702112E1,4.9160645E1,1.6405731E1,3.9137913E1,8.867432E0,0E0,5.362549E0,0E0,5.7798014E0,3.1552425E1,1.4904633E0,3.744502E-1,1.2768555E0,1.1774902E0,3.593832E1,0E0,0E0,8.4998703E-1,4.2004814E0,0E0,8.677028E0,0E0,0E0,3.4323692E0,0E0,0E0,0E0,0E0,0E0,0E0,0E0,0E0,0E0,0E0,0E0,0E0,0E0],"parents":[2147483647,0,0,1,1,2,2,3,3,4,4,5,5,6,6,8,8,10,10,11,11,12,12,13,13,14,14,15,15,16,16,19,19,20,20,22,22,25,25],"right_children":[2,4,6,8,10,12,14,-1,16,-1,18,20,22,24,26,28,30,-1,-1,32,34,-1,36,-1,-1,38,-1,-1,-1,-1,-1,-1,-1,-1,-1,-1,-1,-1,-1],"split_conditions":[5.618201E-1,1.3818971E-3,6.786812E-1,2.0016313E-1,3.4760866E0,5.931198E-4,9.696029E-5,4.3335397E-2,8.924587E-4,4.284923E-2,2.700135E-3,2.8008825E-1,2.0199027E0,3.1215507E-1,7.3225677E-1,5.5104566E-1,1.2385607E0,-2.7946306E-2,3.6949433E-2,9.894622E-5,4.6460935E-1,4.2334642E-2,1.8007202E-3,-2.3986457E-2,3.8246468E-3,2.2236764E-1,4.153612E-2,-2.9029101E-2,9.880252E-3,4.9642734E-2,-2.9099463E-2,4.345087E-3,4.1069012E-2,-2.8146181E-2,1.0154642E-2,-2.593544E-2,3.9697487E-2,9.264375E-3,3.8001128E-2],"split_indices":[2,0,2,6,6,0,0,0,0,0,0,6,6,1,2,1,6,0,0,0,1,0,0,0,0,1,0,0,0,0,0,0,0,0,0,0,0,0,0],"split_type":[0,0,0,0,0,0,0,0,0,0,0,0,0,0,0,0,0,0,0,0,0,0,0,0,0,0,0,0,0,0,0,0,0,0,0,0,0,0,0],"sum_hessian":[1.2985019E4,1.0509269E4,2.4757498E3,1.0455624E4,5.3644955E1,1.9454893E2,2.281201E3,2.276539E1,1.0432858E4,3.5254143E1,1.8390812E1,9.842451E1,9.612442E1,5.7394485E0,2.2754614E3,1.031669E4,1.16168365E2,1.4941517E1,3.4492946E0,2.6760073E1,7.166444E1,6.705581E1,2.9068613E1,4.5066376E0,1.2328113E0,9.11427E1,2.1843186E3,1.0315189E4,1.5009581E0,1.5982569E1,1.001858E2,1.9466863E0,2.4813387E1,6.412835E1,7.536084E0,5.594931E0,2.3473682E1,1.284036E1,7.8302345E1],"tree_param":{"num_deleted":"0","num_feature":"7","num_nodes":"39","size_leaf_vector":"1"}},{"base_weights":[1.1093153E-1,-6.071315E-1,5.2966404E-1,3.5244744E-2,-3.0500475E-2,7.2669655E-1,-3.1098476E-2,7.301486E-1,3.2418886E-1,3.11716E-1,3.663042E-2,4.8645985E-1,-5.5390567E-1,-1.580366E-2,3.643762E-2,3.6241334E-2,1.2250247E-2,-3.094743E-2,-8.42773E-4],"categories":[],"categories_nodes":[],"categories_segments":[],"categories_sizes":[],"default_left":[0,0,0,0,0,0,0,0,0,0,0,0,0,0,0,0,0,0,0],"id":48,"left_children":[1,3,5,-1,-1,7,-1,9,11,13,-1,15,17,-1,-1,-1,-1,-1,-1],"loss_changes":[5.215073E3,2.4554688E1,2.4863777E3,0E0,0E0,1.2762207E1,0E0,9.317383E0,1.1861271E1,1.4877163E1,0E0,3.804964E0,4.4914103E-1,0E0,0E0,0E0,0E0,0E0,0E0],"parents":[2147483647,0,0,1,1,2,2,5,5,7,7,8,8,9,9,11,11,12,12],"right_children":[2,4,6,-1,-1,8,-1,10,12,14,-1,16,18,-1,-1,-1,-1,-1,-1],"split_conditions":[2.7407072E-3,8.773185E-1,1.0242035E-3,3.5244744E-2,-3.0500475E-2,3.9985983E-4,-3.1098476E-2,5.3917933E-2,5.4602087E-1,1.5389667E-2,3.663042E-2,3.051079E-1,3.0408914E0,-1.580366E-2,3.643762E-2,3.6241334E-2,1.2250247E-2,-3.094743E-2,-8.42773E-4],"split_indices":[4,6,5,0,0,5,0,2,2,1,0,2,6,0,0,0,0,0,0],"split_type":[0,0,0,0,0,0,0,0,0,0,0,0,0,0,0,0,0,0,0],"sum_hessian":[1.7342408E4,6.3878174E3,1.0954592E4,1.3447626E1,6.3743696E3,9.354502E3,1.6000894E3,9.27415E3,8.035224E1,5.4944275E1,9.219206E3,6.819574E1,1.2156498E1,2.2027336E1,3.291694E1,3.3309925E1,3.4885815E1,1.0707233E1,1.4492651E0],"tree_param":{"num_deleted":"0","num_feature":"7","num_nodes":"19","size_leaf_vector":"1"}},{"base_weights":[1.1157547E-1,7.298128E-1,-6.0830903E-1,-2.8286234E-2,3.656216E-2,-3.1837493E-2,-3.060312E-2,5.4537785E-1,-2.9738579E-2,-2.468226E-2,7.405096E-1,4.056571E-2,-1.7247273E-2],"categories":[],"categories_nodes":[],"categories_segments":[],"categories_sizes":[],"default_left":[0,0,0,0,0,0,0,0,0,0,0,0,0],"id":49,"left_children":[1,3,5,-1,-1,7,-1,9,-1,-1,11,-1,-1],"loss_changes":[7.6965205E3,1.7653809E1,1.726831E1,0E0,0E0,1.746143E1,0E0,5.750776E0,0E0,0E0,2.0292187E0,0E0,0E0],"parents":[2147483647,0,0,1,1,2,2,5,5,7,7,10,10],"right_children":[2,4,6,-1,-1,8,-1,10,-1,-1,12,-1,-1],"split_conditions":[2.7407072E-3,8.773185E-1,1.4591127E-4,-2.8286234E-2,3.656216E-2,1.5389667E-2,-3.060312E-2,9.677263E-5,-2.9738579E-2,-2.468226E-2,1.01528E-4,4.056571E-2,-1.7247273E-2],"split_indices":[4,6,5,0,0,1,0,0,0,0,0,0,0],"split_type":[0,0,0,0,0,0,0,0,0,0,0,0,0],"sum_hessian":[1.7291242E4,9.302357E3,7.988885E3,9.824496E0,9.292533E3,5.174008E1,7.9371445E3,2.5561396E1,2.6178686E1,3.7996264E0,2.176177E1,2.0666264E1,1.0955074E0],"tree_param":{"num_deleted":"0","num_feature":"7","num_nodes":"13","size_leaf_vector":"1"}},{"base_weights":[-3.053564E-1,-5.5054164E-1,7.5574833E-1,-5.6325674E-1,6.5417266E-1,2.8153345E-1,7.882937E-1,6.97387E-1,-5.7122356E-1,8.2488406E-1,-3.0590419E-2,2.725893E-2,6.7965823E-1,-4.1563204E-1,7.9413366E-1,-2.3299582E-2,7.7856874E-1,-5.750801E-1,-3.2698387E-1,7.0795985E-3,4.183321E-2,-2.7556738E-2,3.8786482E-2,6.4830583E-1,-5.391776E-1,4.181015E-2,-1.0192117E-1,-2.6248774E-2,1.3642633E-2,4.9936464E-1,7.9981434E-1,1.4005606E-2,4.1469317E-2,-2.8781096E-2,1.6036524E-3,4.7534563E-2,-2.889725E-2,-1.6214868E-2,4.0760126E-2,-2.8575635E-2,-3.8054304E-3,-2.5288468E-2,3.1414274E-2,3.4514524E-2,-6.354075E-3,3.288574E-2,4.0217575E-2],"categories":[],"categories_nodes":[],"categories_segments":[],"categories_sizes":[],"default_left":[0,0,0,0,0,0,0,0,0,0,0,0,0,0,0,0,0,0,0,0,0,0,0,0,0,0,0,0,0,0,0,0,0,0,0,0,0,0,0,0,0,0,0,0,0,0,0],"id":50,"left_children":[1,3,5,7,9,11,13,15,17,19,21,23,25,27,29,-1,31,33,35,-1,-1,-1,-1,37,39,-1,41,-1,-1,43,45,-1,-1,-1,-1,-1,-1,-1,-1,-1,-1,-1,-1,-1,-1,-1,-1],"loss_changes":[3.2842744E3,1.5743384E2,3.634851E1,1.0230786E2,1.2597923E1,1.5544345E1,1.5916016E1,6.423628E0,9.309814E0,5.7479477E-1,9.840612E0,3.37187E1,7.411213E0,9.9826086E-1,3.295288E0,0E0,1.2966537E0,3.2836914E0,5.1553276E1,0E0,0E0,0E0,0E0,7.6828156E0,7.0750237E-1,0E0,3.527054E0,0E0,0E0,5.3957767E0,8.654785E-1,0E0,0E0,0E0,0E0,0E0,0E0,0E0,0E0,0E0,0E0,0E0,0E0,0E0,0E0,0E0,0E0],"parents":[2147483647,0,0,1,1,2,2,3,3,4,4,5,5,6,6,7,7,8,8,9,9,10,10,11,11,12,12,13,13,14,14,16,16,17,17,18,18,23,23,24,24,26,26,29,29,30,30],"right_children":[2,4,6,8,10,12,14,16,18,20,22,24,26,28,30,-1,32,34,36,-1,-1,-1,-1,38,40,-1,42,-1,-1,44,46,-1,-1,-1,-1,-1,-1,-1,-1,-1,-1,-1,-1,-1,-1,-1,-1],"split_conditions":[7.572981E-2,1.3818971E-3,8.8836916E-2,2.454112E-1,3.8100543E0,7.924715E-4,9.1909565E-2,9.712038E-5,7.924715E-4,1.3633506E-2,2.700135E-3,4.423012E-1,2.8763762E0,4.1377885E-4,2.4170448E-1,-2.3299582E-2,9.919159E-5,5.021729E-1,1.4925504E0,7.0795985E-3,4.183321E-2,-2.7556738E-2,3.8786482E-2,9.919159E-5,6.9365307E-4,4.181015E-2,1.4972301E-3,-2.6248774E-2,1.3642633E-2,1.1632293E0,9.8221034E-2,1.4005606E-2,4.1469317E-2,-2.8781096E-2,1.6036524E-3,4.7534563E-2,-2.889725E-2,-1.6214868E-2,4.0760126E-2,-2.8575635E-2,-3.8054304E-3,-2.5288468E-2,3.1414274E-2,3.4514524E-2,-6.354075E-3,3.288574E-2,4.0217575E-2],"split_indices":[4,0,4,6,6,0,1,0,0,4,0,6,6,0,1,0,0,1,6,0,0,0,0,0,0,0,0,0,0,6,4,0,0,0,0,0,0,0,0,0,0,0,0,0,0,0,0],"split_type":[0,0,0,0,0,0,0,0,0,0,0,0,0,0,0,0,0,0,0,0,0,0,0,0,0,0,0,0,0,0,0,0,0,0,0,0,0,0,0,0,0,0,0,0,0,0,0],"sum_hessian":[1.2621109E4,1.025257E4,2.3685388E3,1.0146017E4,1.06553665E2,1.5273322E2,2.2158054E3,6.3172928E1,1.0082844E4,8.51269E1,2.1426762E1,9.3857025E1,5.8876183E1,1.0357672E1,2.2054478E3,3.8115304E0,5.9361397E1,9.924778E3,1.5806546E2,1.6633954E0,8.346351E1,1.3213117E1,8.213646E0,4.470141E1,4.915562E1,4.8993282E1,9.882898E0,9.143082E0,1.2145901E0,4.3379955E1,2.1620679E3,6.094466E0,5.326693E1,9.915981E3,8.796679E0,2.549237E1,1.3257309E2,6.4090543E0,3.8292355E1,4.5728325E1,3.427296E0,6.5614076E0,3.3214915E0,3.316894E1,1.0211014E1,7.141341E1,2.0906545E3],"tree_param":{"num_deleted":"0","num_feature":"7","num_nodes":"47","size_leaf_vector":"1"}},{"base_weights":[1.09863244E-1,-6.01089E-1,5.1889306E-1,-6.0302514E-1,3.3789005E-2,7.113147E-1,-3.0760322E-2,-6.033106E-1,2.0896662E-2,7.1492845E-1,2.951619E-1,-3.0205507E-2,-1.939184E-2,2.3607123E-1,3.5885762E-2,5.9320396E-1,-3.047017E-1,-1.9491052E-2,3.557999E-2,3.2278325E-2,-1.9118827E-2,8.507375E-3,-2.8796902E-2],"categories":[],"categories_nodes":[],"categories_segments":[],"categories_sizes":[],"default_left":[0,0,0,0,0,0,0,0,0,0,0,0,0,0,0,0,0,0,0,0,0,0,0],"id":51,"left_children":[1,3,5,7,-1,9,-1,11,-1,13,15,-1,-1,17,-1,19,21,-1,-1,-1,-1,-1,-1],"loss_changes":[4.901871E3,1.5626953E1,2.3354812E3,2.0437012E0,0E0,1.3547852E1,0E0,8.244629E-1,0E0,1.1932617E1,1.4566357E1,0E0,0E0,1.633813E1,0E0,3.0102043E0,3.6230059E0,0E0,0E0,0E0,0E0,0E0,0E0],"parents":[2147483647,0,0,1,1,2,2,3,3,5,5,7,7,9,9,10,10,13,13,15,15,16,16],"right_children":[2,4,6,8,-1,10,-1,12,-1,14,16,-1,-1,18,-1,20,22,-1,-1,-1,-1,-1,-1],"split_conditions":[2.7407072E-3,1.4591127E-4,1.0242035E-3,1.5389667E-2,3.3789005E-2,3.9985983E-4,-3.0760322E-2,3.0289055E-8,2.0896662E-2,5.3917933E-2,4.289058E-1,-3.0205507E-2,-1.939184E-2,1.5389667E-2,3.5885762E-2,9.310485E-2,6.1280977E-2,-1.9491052E-2,3.557999E-2,3.2278325E-2,-1.9118827E-2,8.507375E-3,-2.8796902E-2],"split_indices":[4,5,5,1,0,5,0,4,0,2,2,0,0,1,0,4,4,0,0,0,0,0,0],"split_type":[0,0,0,0,0,0,0,0,0,0,0,0,0,0,0,0,0,0,0,0,0,0,0],"sum_hessian":[1.6854393E4,6.155239E3,1.0699154E4,6.146447E3,8.792162E0,9.147482E3,1.551672E3,6.1451377E3,1.3092692E0,9.068019E3,7.9463356E1,6.1206235E3,2.4513931E1,5.296215E1,9.015057E3,5.3094482E1,2.6368872E1,2.2943748E1,3.0018404E1,5.0710938E1,2.3835437E0,9.721788E0,1.6647083E1],"tree_param":{"num_deleted":"0","num_feature":"7","num_nodes":"23","size_leaf_vector":"1"}},{"base_weights":[1.1174449E-1,7.1235335E-1,-3.0299991E-2,-2.9325096E-2,7.1534836E-1,3.583665E-2,-2.7926866E-2],"categories":[],"categories_nodes":[],"categories_segments":[],"categories_sizes":[],"default_left":[0,0,0,0,0,0,0],"id":52,"left_children":[1,3,-1,-1,5,-1,-1],"loss_changes":[7.256151E3,3.606787E1,0E0,0E0,1.6527344E1,0E0,0E0],"parents":[2147483647,0,0,1,1,4,4],"right_children":[2,4,-1,-1,6,-1,-1],"split_conditions":[5.3917933E-2,9.979542E-5,-3.0299991E-2,-2.9325096E-2,1.01528E-4,3.583665E-2,-2.7926866E-2],"split_indices":[2,0,0,0,0,0,0],"split_type":[0,0,0,0,0,0,0],"sum_hessian":[1.683035E4,9.162866E3,7.667484E3,2.0631884E1,9.142234E3,9.132745E3,9.488917E0],"tree_param":{"num_deleted":"0","num_feature":"7","num_nodes":"7","size_leaf_vector":"1"}},{"base_weights":[-3.0533707E-1,-5.6133133E-1,7.435114E-1,-5.6648487E-1,4.63151E-1,1.8915035E-1,7.77171E-1,-5.6961554E-1,6.629777E-2,-2.9559887E-3,7.4583393E-1,-1.8455903E-1,7.528028E-1,-2.1350446E-1,7.785734E-1,-5.7051903E-1,-1.7059803E-1,-5.140389E-1,3.5522196E-1,-3.0282408E-1,4.8101294E-1,2.3271625E-1,3.9122432E-2,-4.6421465E-1,6.0870016E-1,4.725784E-1,3.9822575E-2,-1.9314993E-2,7.386045E-3,6.174329E-1,3.9320048E-2,-2.8542915E-2,8.528224E-3,-2.2874964E-2,2.0304404E-2,-2.7668983E-2,-1.7780736E-3,-2.4874788E-2,2.6380569E-2,-2.2118152E-3,-2.5090486E-2,-1.234948E-3,2.87666E-2,-1.5653733E-2,3.0430848E-2,1.5056695E-2,-2.4194269E-2,3.803676E-2,1.7455025E-2,3.2679003E-2,-2.681183E-3,9.794514E-3,3.9200783E-2],"categories":[],"categories_nodes":[],"categories_segments":[],"categories_sizes":[],"default_left":[0,0,0,0,0,0,0,0,0,0,0,0,0,0,0,0,0,0,0,0,0,0,0,0,0,0,0,0,0,0,0,0,0,0,0,0,0,0,0,0,0,0,0,0,0,0,0,0,0,0,0,0,0],"id":53,"left_children":[1,3,5,7,9,11,13,15,17,19,21,23,25,27,29,31,33,35,37,39,41,43,-1,45,47,49,-1,-1,-1,51,-1,-1,-1,-1,-1,-1,-1,-1,-1,-1,-1,-1,-1,-1,-1,-1,-1,-1,-1,-1,-1,-1,-1],"loss_changes":[3.2639211E3,5.1848633E1,4.4356323E1,1.9297607E1,6.5183067E0,2.9175026E1,3.2895508E0,3.3903809E0,8.358077E0,2.9997222E0,3.9635086E-1,1.884877E1,2.9821968E-1,3.0441326E-1,2.3464355E0,2.5239258E0,4.0381317E0,2.9307413E-1,5.1345553E0,6.341717E-1,3.914956E-1,9.032718E-1,0E0,1.0858212E0,6.1247826E-1,9.772167E-1,0E0,0E0,0E0,7.4770164E0,0E0,0E0,0E0,0E0,0E0,0E0,0E0,0E0,0E0,0E0,0E0,0E0,0E0,0E0,0E0,0E0,0E0,0E0,0E0,0E0,0E0,0E0,0E0],"parents":[2147483647,0,0,1,1,2,2,3,3,4,4,5,5,6,6,7,7,8,8,9,9,10,10,11,11,12,12,13,13,14,14,15,15,16,16,17,17,18,18,19,19,20,20,21,21,23,23,24,24,25,25,29,29],"right_children":[2,4,6,8,10,12,14,16,18,20,22,24,26,28,30,32,34,36,38,40,42,44,-1,46,48,50,-1,-1,-1,52,-1,-1,-1,-1,-1,-1,-1,-1,-1,-1,-1,-1,-1,-1,-1,-1,-1,-1,-1,-1,-1,-1,-1],"split_conditions":[5.618201E-1,1.3818971E-3,6.050252E-2,9.310485E-2,4.82055E-2,7.637989E-1,9.725261E-5,5.4602087E-1,3.288446E-1,1.9936203E-3,2.9453525E-1,5.931198E-4,8.3116835E-1,3.1215507E-1,8.131442E-2,5E-1,3.892944E-4,8.924587E-4,2.1032557E-1,8.9736454E-2,1.6057613E-1,6.050252E-2,3.9122432E-2,1.6495034E-2,1.4945075E-1,5.2918326E-2,3.9822575E-2,-1.9314993E-2,7.386045E-3,7.637989E-1,3.9320048E-2,-2.8542915E-2,8.528224E-3,-2.2874964E-2,2.0304404E-2,-2.7668983E-2,-1.7780736E-3,-2.4874788E-2,2.6380569E-2,-2.2118152E-3,-2.5090486E-2,-1.234948E-3,2.87666E-2,-1.5653733E-2,3.0430848E-2,1.5056695E-2,-2.4194269E-2,3.803676E-2,1.7455025E-2,3.2679003E-2,-2.681183E-3,9.794514E-3,3.9200783E-2],"split_indices":[2,0,4,4,4,2,0,2,2,0,2,0,2,1,4,3,0,0,1,1,2,4,0,4,1,4,0,0,0,2,0,0,0,0,0,0,0,0,0,0,0,0,0,0,0,0,0,0,0,0,0,0,0],"split_type":[0,0,0,0,0,0,0,0,0,0,0,0,0,0,0,0,0,0,0,0,0,0,0,0,0,0,0,0,0,0,0,0,0,0,0,0,0,0,0,0,0,0,0,0,0,0,0,0,0,0,0,0,0],"sum_hessian":[1.2153613E4,9.769596E3,2.3840173E3,9.721142E3,4.8454155E1,1.3684554E2,2.2471719E3,9.673383E3,4.775838E1,1.8665968E1,2.9788187E1,8.269209E1,5.415344E1,2.962773E0,2.2442092E3,9.6511E3,2.2283777E1,1.5614918E1,3.2143463E1,1.1756134E1,6.909834E0,2.4739625E0,2.7314224E1,6.1445053E1,2.124704E1,8.892226E0,4.526121E1,1.9571416E0,1.0056314E0,1.07664314E2,2.136545E3,9.646913E3,4.186E0,1.5018667E1,7.2651095E0,1.428394E1,1.330977E0,5.088332E0,2.7055132E1,5.6439548E0,6.1121798E0,1.2021863E0,5.7076473E0,1.0771394E0,1.3968233E0,1.1811252E0,6.026393E1,1.2182134E1,9.064906E0,6.436236E0,2.4559903E0,3.111155E1,7.6552765E1],"tree_param":{"num_deleted":"0","num_feature":"7","num_nodes":"53","size_leaf_vector":"1"}},{"base_weights":[1.07983395E-1,-5.893761E-1,5.128733E-1,3.5185937E-2,-5.965785E-1,6.998252E-1,-3.050296E-2,-2.994035E-2,3.327313E-2,7.039244E-1,2.6089525E-1,3.520002E-2,1.0526199E-2,4.3424165E-1,-5.657069E-1,3.4789197E-2,8.867138E-3,-3.1225413E-2,-6.399881E-3],"categories":[],"categories_nodes":[],"categories_segments":[],"categories_sizes":[],"default_left":[0,0,0,0,0,0,0,0,0,0,0,0,0,0,0,0,0,0,0],"id":54,"left_children":[1,3,5,-1,7,9,-1,-1,-1,11,13,-1,-1,15,17,-1,-1,-1,-1],"loss_changes":[4.585324E3,5.597754E1,2.1573308E3,0E0,1.7084717E1,1.5665039E1,0E0,0E0,0E0,1.7822266E-1,1.21512985E1,0E0,0E0,4.529543E0,3.0196667E-1,0E0,0E0,0E0,0E0],"parents":[2147483647,0,0,1,1,2,2,4,4,5,5,9,9,10,10,13,13,14,14],"right_children":[2,4,6,-1,8,10,-1,-1,-1,12,14,-1,-1,16,18,-1,-1,-1,-1],"split_conditions":[5.3917933E-2,9.4358486E-1,1.0242035E-3,3.5185937E-2,1.0040662E0,3.9985983E-4,-3.050296E-2,-2.994035E-2,3.327313E-2,6E-1,5.4602087E-1,3.520002E-2,1.0526199E-2,3.051079E-1,3.0408914E0,3.4789197E-2,8.867138E-3,-3.1225413E-2,-6.399881E-3],"split_indices":[2,6,5,0,6,5,0,0,0,3,2,0,0,2,6,0,0,0,0],"split_type":[0,0,0,0,0,0,0,0,0,0,0,0,0,0,0,0,0,0,0],"sum_hessian":[1.6237568E4,5.964388E3,1.0273181E4,3.2501305E1,5.931887E3,8.807274E3,1.4659061E3,5.9219556E3,9.931569E0,8.725186E3,8.2088615E1,8.723416E3,1.7697672E0,6.8250496E1,1.38381195E1,3.2973064E1,3.527743E1,1.1823059E1,2.0150602E0],"tree_param":{"num_deleted":"0","num_feature":"7","num_nodes":"19","size_leaf_vector":"1"}},{"base_weights":[1.0484726E-1,6.9792056E-1,-3.0013142E-2,7.018082E-1,-2.9212449E-2,-2.7227744E-2,3.514734E-2],"categories":[],"categories_nodes":[],"categories_segments":[],"categories_sizes":[],"default_left":[0,0,0,0,0,0,0],"id":55,"left_children":[1,3,-1,5,-1,-1,-1],"loss_changes":[6.8109595E3,4.450537E1,0E0,1.2899414E1,0E0,0E0,0E0],"parents":[2147483647,0,0,1,1,3,3],"right_children":[2,4,-1,6,-1,-1,-1],"split_conditions":[1.4591127E-4,1.5389667E-2,-3.0013142E-2,9.867285E-5,-2.9212449E-2,-2.7227744E-2,3.514734E-2],"split_indices":[5,1,0,0,0,0,0],"split_type":[0,0,0,0,0,0,0],"sum_hessian":[1.6285071E4,8.845264E3,7.439807E3,8.818977E3,2.628724E1,7.613287E0,8.811363E3],"tree_param":{"num_deleted":"0","num_feature":"7","num_nodes":"7","size_leaf_vector":"1"}},{"base_weights":[-3.0159596E-1,-5.709068E-1,7.598763E-1,-2.8549988E-2,7.3566237E-3,1.7774406E-1,7.749196E-1,-2.7704317E-2,4.2021826E-1,4.104775E-2,3.8431037E-2,-1.345006E-1,6.239845E-1,4.1744877E-2,-2.404331E-2,5.4643165E-2,2.2727927E-2],"categories":[],"categories_nodes":[],"categories_segments":[],"categories_sizes":[],"default_left":[0,0,0,0,0,0,0,0,0,0,0,0,0,0,0,0,0],"id":56,"left_children":[1,3,5,-1,-1,7,9,-1,11,-1,-1,13,15,-1,-1,-1,-1],"loss_changes":[3.3583933E3,7.092285E-1,2.068335E1,0E0,0E0,1.1091206E1,4.1015625E-2,0E0,5.3434944E0,0E0,0E0,4.8749704E0,2.2207232E0,0E0,0E0,0E0,0E0],"parents":[2147483647,0,0,1,1,2,2,5,5,6,6,8,8,11,11,12,12],"right_children":[2,4,6,-1,-1,8,10,-1,12,-1,-1,14,16,-1,-1,-1,-1],"split_conditions":[3.9985983E-4,6E-1,1.0242035E-3,-2.8549988E-2,7.3566237E-3,3.8961407E-2,8.8836916E-2,-2.7704317E-2,1.9868865E-4,4.104775E-2,3.8431037E-2,1.2565756E-1,6.6248745E-1,4.1744877E-2,-2.404331E-2,5.4643165E-2,2.2727927E-2],"split_indices":[5,3,5,0,0,4,4,0,0,0,0,6,6,0,0,0,0],"split_type":[0,0,0,0,0,0,0,0,0,0,0,0,0,0,0,0,0],"sum_hessian":[1.1745619E4,9.369024E3,2.376595E3,9.368017E3,1.007554E0,6.019115E1,2.3164038E3,1.4659881E1,4.553127E1,2.6323248E2,2.0531714E3,1.232325E1,3.320802E1,2.8727179E0,9.450532E0,7.3677387E0,2.584028E1],"tree_param":{"num_deleted":"0","num_feature":"7","num_nodes":"17","size_leaf_vector":"1"}},{"base_weights":[1.0390035E-1,-2.965261E-2,4.9667355E-1,6.8137187E-1,-3.0183792E-2,3.80687E-2,6.8739337E-1,-3.2470933E-1,3.414194E-2,6.9119096E-1,2.604639E-1,-2.4470707E-2,3.150706E-2,3.4563493E-2,5.386504E-3,2.2402415E-2,-2.779432E-2],"categories":[],"categories_nodes":[],"categories_segments":[],"categories_sizes":[],"default_left":[0,0,0,0,0,0,0,0,0,0,0,0,0,0,0,0,0],"id":57,"left_children":[1,-1,3,5,-1,7,9,11,-1,13,15,-1,-1,-1,-1,-1,-1],"loss_changes":[4.318156E3,0E0,2.050754E3,3.343921E1,0E0,1.9208845E1,1.3696533E1,8.584457E0,0E0,3.154297E-1,1.20504675E1,0E0,0E0,0E0,0E0,0E0,0E0],"parents":[2147483647,0,0,2,2,3,3,5,5,6,6,7,7,9,9,10,10],"right_children":[2,-1,4,6,-1,8,10,12,-1,14,16,-1,-1,-1,-1,-1,-1],"split_conditions":[3.0289055E-8,-2.965261E-2,1.0242035E-3,5.3917933E-2,-3.0183792E-2,1.5389667E-2,3.9985983E-4,1.4591127E-4,3.414194E-2,6E-1,5.4602087E-1,-2.4470707E-2,3.150706E-2,3.4563493E-2,5.386504E-3,2.2402415E-2,-2.779432E-2],"split_indices":[4,0,5,2,0,1,5,5,0,3,2,0,0,0,0,0,0],"split_type":[0,0,0,0,0,0,0,0,0,0,0,0,0,0,0,0,0],"sum_hessian":[1.5772337E4,5.684688E3,1.0087648E4,8.63809E3,1.4495591E3,8.017331E1,8.557916E3,5.162375E1,2.8549559E1,8.481851E3,7.606557E1,4.4444786E1,7.178961E0,8.4805205E3,1.3306187E0,6.221963E1,1.3845932E1],"tree_param":{"num_deleted":"0","num_feature":"7","num_nodes":"17","size_leaf_vector":"1"}},{"base_weights":[1.07928045E-1,6.862961E-1,-2.9742345E-2,-2.8774077E-2,6.8927675E-1,3.4518816E-2,-2.6813362E-2],"categories":[],"categories_nodes":[],"categories_segments":[],"categories_sizes":[],"default_left":[0,0,0,0,0,0,0],"id":58,"left_children":[1,3,-1,-1,5,-1,-1],"loss_changes":[6.4079087E3,3.2920654E1,0E0,0E0,1.1996094E1,0E0,0E0],"parents":[2147483647,0,0,1,1,4,4],"right_children":[2,4,-1,-1,6,-1,-1],"split_conditions":[5.3917933E-2,9.4358486E-1,-2.9742345E-2,-2.8774077E-2,1.01528E-4,3.4518816E-2,-2.6813362E-2],"split_indices":[2,6,0,0,0,0,0],"split_type":[0,0,0,0,0,0,0],"sum_hessian":[1.576306E4,8.646888E3,7.116172E3,1.9925148E1,8.626962E3,8.619666E3,7.2966785E0],"tree_param":{"num_deleted":"0","num_feature":"7","num_nodes":"7","size_leaf_vector":"1"}},{"base_weights":[-3.001602E-1,-5.559903E-1,6.988133E-1,-5.6059986E-1,3.7206092E-1,1.5062648E-1,7.393493E-1,3.9966803E-2,-5.628753E-1,7.7997416E-1,-3.7850386E-1,-2.2760592E-1,6.735911E-1,-2.6532996E-1,7.407786E-1,-5.647968E-1,-8.42994E-2,1.1023867E-2,3.983337E-2,-2.7109742E-2,2.8725496E-2,6.919565E-1,-5.2762264E-1,3.9000478E-2,3.9528713E-1,-1.8149104E-2,-9.161777E-4,6.038122E-1,3.7406366E-2,-2.825749E-2,6.5503926E-3,-2.7635083E-2,1.376758E-2,-5.1462804E-3,3.7577324E-2,-2.6827693E-2,1.6309902E-3,-2.4942633E-2,3.503212E-2,1.1822749E-2,3.6763027E-2],"categories":[],"categories_nodes":[],"categories_segments":[],"categories_sizes":[],"default_left":[0,0,0,0,0,0,0,0,0,0,0,0,0,0,0,0,0,0,0,0,0,0,0,0,0,0,0,0,0,0,0,0,0,0,0,0,0,0,0,0,0],"id":59,"left_children":[1,3,5,7,9,11,13,-1,15,17,19,21,23,25,27,29,31,-1,-1,-1,-1,33,35,-1,37,-1,-1,39,-1,-1,-1,-1,-1,-1,-1,-1,-1,-1,-1,-1,-1],"loss_changes":[2.9000325E3,3.885205E1,5.1301025E1,2.8265625E1,1.4148317E1,3.1912535E1,3.289795E0,0E0,8.205566E0,1.01200104E-1,2.9019182E0,2.6276321E1,1.6949406E0,8.492005E-2,1.713623E0,2.2695312E0,6.3962317E0,0E0,0E0,0E0,0E0,1.1922369E0,3.7468147E-1,0E0,6.011448E0,0E0,0E0,5.3663216E0,0E0,0E0,0E0,0E0,0E0,0E0,0E0,0E0,0E0,0E0,0E0,0E0,0E0],"parents":[2147483647,0,0,1,1,2,2,3,3,4,4,5,5,6,6,8,8,9,9,10,10,11,11,12,12,13,13,14,14,15,15,16,16,21,21,22,22,24,24,27,27],"right_children":[2,4,6,8,10,12,14,-1,16,18,20,22,24,26,28,30,32,-1,-1,-1,-1,34,36,-1,38,-1,-1,40,-1,-1,-1,-1,-1,-1,-1,-1,-1,-1,-1,-1,-1],"split_conditions":[5.4602087E-1,1.3818971E-3,6.050252E-2,2.0016313E-1,3.4760866E0,5.931198E-4,9.7575255E-5,3.9966803E-2,9.310485E-2,1.2274888E-2,2.700135E-3,2.8008825E-1,2.0199027E0,9.665104E-5,8.131442E-2,5E-1,3.086896E-4,1.1023867E-2,3.983337E-2,-2.7109742E-2,2.8725496E-2,9.894622E-5,8.0090827E-1,3.9000478E-2,1.8007202E-3,-1.8149104E-2,-9.161777E-4,7.3225677E-1,3.7406366E-2,-2.825749E-2,6.5503926E-3,-2.7635083E-2,1.376758E-2,-5.1462804E-3,3.7577324E-2,-2.6827693E-2,1.6309902E-3,-2.4942633E-2,3.503212E-2,1.1822749E-2,3.6763027E-2],"split_indices":[2,0,4,6,6,0,0,0,4,4,0,6,6,0,4,3,0,0,0,0,0,0,2,0,0,0,0,2,0,0,0,0,0,0,0,0,0,0,0,0,0],"split_type":[0,0,0,0,0,0,0,0,0,0,0,0,0,0,0,0,0,0,0,0,0,0,0,0,0,0,0,0,0,0,0,0,0,0,0,0,0,0,0,0,0],"sum_hessian":[1.1344905E4,9.032253E3,2.3126526E3,8.988006E3,4.4247105E1,1.5956055E2,2.153092E3,1.4428217E1,8.973577E3,2.8641811E1,1.5605292E1,9.2920715E1,6.6639824E1,2.796373E0,2.1502957E3,8.937512E3,3.6065144E1,1.2414227E0,2.7400389E1,1.3685692E1,1.9196002E0,2.2537142E1,7.0383575E1,4.6902443E1,1.973738E1,1.6675819E0,1.128791E0,1.1373091E2,2.0365648E3,8.933168E3,4.3440247E0,1.54311495E1,2.0633993E1,1.5209987E0,2.1016142E1,6.932077E1,1.0628082E0,4.863225E0,1.4874153E1,3.070864E1,8.302228E1],"tree_param":{"num_deleted":"0","num_feature":"7","num_nodes":"41","size_leaf_vector":"1"}},{"base_weights":[1.05406865E-1,-5.847392E-1,4.9287933E-1,3.27272E-2,-5.877402E-1,6.5700233E-1,-5.653794E-1,-2.9404158E-2,2.297801E-2,6.6771835E-1,-3.2250565E-1,5.4534256E-1,-5.7299924E-1,6.699213E-1,-3.897724E-1,1.7179067E-1,-5.3012174E-1,3.030848E-2,4.721889E-3,-3.4369355E-1,-2.9577864E-2,3.359973E-2,1.936995E-2,-3.2181377E-4,-2.6155818E-2,-2.6621222E-2,2.1555955E-2,9.319882E-4,-2.8931065E-2,3.7989428E-3,-2.9931143E-2],"categories":[],"categories_nodes":[],"categories_segments":[],"categories_sizes":[],"default_left":[0,0,0,0,0,0,0,0,0,0,0,0,0,0,0,0,0,0,0,0,0,0,0,0,0,0,0,0,0,0,0],"id":60,"left_children":[1,3,5,-1,7,9,11,-1,-1,13,15,17,19,21,23,25,27,-1,-1,29,-1,-1,-1,-1,-1,-1,-1,-1,-1,-1,-1],"loss_changes":[4.0954473E3,2.0864502E1,1.7039033E3,0E0,2.2435303E0,8.934863E1,1.1462677E1,0E0,0E0,1.982959E1,9.591031E0,2.0300555E-1,5.3668823E0,4.6503906E0,9.215412E-1,5.3678904E0,1.7522964E0,0E0,0E0,1.0785845E1,0E0,0E0,0E0,0E0,0E0,0E0,0E0,0E0,0E0,0E0,0E0],"parents":[2147483647,0,0,1,1,2,2,4,4,5,5,6,6,9,9,10,10,11,11,12,12,13,13,14,14,15,15,16,16,19,19],"right_children":[2,4,6,-1,8,10,12,-1,-1,14,16,18,20,22,24,26,28,-1,-1,30,-1,-1,-1,-1,-1,-1,-1,-1,-1,-1,-1],"split_conditions":[2.7407072E-3,9.979542E-5,6.786812E-1,3.27272E-2,1.01528E-4,1.0299706E-1,9.696029E-5,-2.9404158E-2,2.297801E-2,1.9936203E-3,4.289058E-1,7.3745534E-2,7.572981E-2,1.18965E-3,2.4140012E-3,1.5389667E-2,1.10194206E-1,3.030848E-2,4.721889E-3,8.3116835E-1,-2.9577864E-2,3.359973E-2,1.936995E-2,-3.2181377E-4,-2.6155818E-2,-2.6621222E-2,2.1555955E-2,9.319882E-4,-2.8931065E-2,3.7989428E-3,